{"learner":{"attributes":{"best_iteration":"22","best_score":"0.5087527352297593","scikit_learn":"{\"_estimator_type\": \"classifier\"}"},"feature_names":[],"feature_types":[],"gradient_booster":{"model":{"gbtree_model_param":{"num_parallel_tree":"1","num_trees":"73"},"iteration_indptr":[0,1,2,3,4,5,6,7,8,9,10,11,12,13,14,15,16,17,18,19,20,21,22,23,24,25,26,27,28,29,30,31,32,33,34,35,36,37,38,39,40,41,42,43,44,45,46,47,48,49,50,51,52,53,54,55,56,57,58,59,60,61,62,63,64,65,66,67,68,69,70,71,72,73],"tree_info":[0,0,0,0,0,0,0,0,0,0,0,0,0,0,0,0,0,0,0,0,0,0,0,0,0,0,0,0,0,0,0,0,0,0,0,0,0,0,0,0,0,0,0,0,0,0,0,0,0,0,0,0,0,0,0,0,0,0,0,0,0,0,0,0,0,0,0,0,0,0,0,0,0],"trees":[{"base_weights":[2.9014766E-2,-2.1594703E-1,1.9452085E-1,1.9450064E-1,-7.8271794E-1,2.7107522E-1,-6.130191E-1,-1.82106E-2,8.9330846E-1,-5.2177817E-1,-1.7833563E0,1.4505087E-1,8.631456E-1,-9.579608E-1,7.9965645E-1,5.839369E-1,-5.2763367E-1,1.4935249E0,2.9966527E-1,-2.619866E-1,-1.4565502E0,-1.9373134E-2,-5.6926343E-3,6.812693E-1,-4.1364346E-2,1.3138086E0,2.313679E-1,3.6956185E-1,-1.2305267E0,1.3582733E-2,-2.7115159E-3,9.859362E-1,-6.066849E-1,3.7861776E-1,-9.178732E-1,1.7214584E0,1.0292694E-3,-1.5284523E0,1.21533E0,-1.0574264E-1,-1.1645105E0,-1.6113775E0,-0E0,7.988821E-1,-6.6392475E-1,1.0320431E0,-2.0294599E-1,1.4100735E0,-1.7614588E-3,1.736577E-2,-8.522191E-2,-7.838447E-3,1.2369705E-2,-1.5670882E0,-4.8388368E-1,1.1109838E0,-9.111998E-3,1.8812501E-1,-1.3388244E0,-5.781281E-1,9.0421045E-1,-2.876314E-1,-1.2618474E0,1.8496357E-2,9.6140485E-3,-7.083008E-3,-1.7375E-2,1.616588E0,-7.838447E-3,-2.4528635E-1,9.324685E-1,-3.3001476E-3,-1.5489105E0,-7.777804E-1,-1.9E-2,3.1486392E-1,1.1512275E0,1.6629291E-3,-1.6E-2,1.2360175E0,-9.653726E-3,-2.6852306E-2,-9.789709E-1,1.5284598E0,8.608216E-5,-5.8670646E-1,1.1233629E0,-6.708682E-1,-1.888E-2,5.892663E-3,-8.961668E-1,1.2382151E-2,-8.510406E-3,1.2889653E-2,-1.1371046E-2,-1.7789474E-2,-0E0,-1.35216545E-2,6.725634E-3,-5.0480803E-3,1.3063496E-2,3.6706089E-3,-1.2815763E-2,-2.608876E-3,-1.5385168E-2,4.477451E-3,1.859475E-2,4.5141624E-4,-1.1061022E-2,1.6554266E-2,-7.838447E-3,-7.083008E-3,-1.7529411E-2,-1.6181817E-2,3.208924E-3,1.0082687E-2,-2.4190692E-3,1.3853621E-2,1.3197465E-3,1.6024683E-2,8.084388E-3,-6.2973234E-3,2.9161514E-3,-0E0,-1.3702358E-2,4.477451E-3,1.5952136E-2,-1.956067E-4,-1.5060502E-2,-7.0091255E-4,1.6229615E-2,-1.6E-2,5.892663E-3,-0E0,-1.2853752E-2],"categories":[],"categories_nodes":[],"categories_segments":[],"categories_sizes":[],"default_left":[0,0,0,0,0,0,0,0,0,0,0,0,0,0,0,0,0,0,0,0,0,0,0,0,0,0,0,0,0,0,0,0,0,0,0,0,0,0,0,0,0,0,0,0,0,0,0,0,0,0,0,0,0,0,0,0,0,0,0,0,0,0,0,0,0,0,0,0,0,0,0,0,0,0,0,0,0,0,0,0,0,0,0,0,0,0,0,0,0,0,0,0,0,0,0,0,0,0,0,0,0,0,0,0,0,0,0,0,0,0,0,0,0,0,0,0,0,0,0,0,0,0,0,0,0,0,0,0,0,0,0,0,0,0,0],"id":0,"left_children":[1,3,5,7,9,11,13,15,17,19,21,23,25,27,29,31,33,35,37,39,41,-1,-1,43,45,47,49,51,53,-1,-1,55,57,59,61,63,-1,65,67,69,71,73,-1,75,77,79,81,83,-1,-1,85,-1,-1,87,89,91,-1,93,95,97,99,101,103,-1,-1,-1,-1,105,-1,107,109,-1,111,113,-1,115,117,-1,-1,119,-1,121,123,125,-1,127,129,131,-1,-1,133,-1,-1,-1,-1,-1,-1,-1,-1,-1,-1,-1,-1,-1,-1,-1,-1,-1,-1,-1,-1,-1,-1,-1,-1,-1,-1,-1,-1,-1,-1,-1,-1,-1,-1,-1,-1,-1,-1,-1,-1,-1,-1,-1,-1],"loss_changes":[4.4842827E1,1.0392067E2,4.0950222E1,3.8641808E1,4.7809555E1,4.483426E1,2.8736073E1,6.153925E1,2.097688E1,3.5934425E1,5.8053436E0,4.9997734E1,2.9619888E1,1.7409695E1,7.503514E0,4.4609863E1,3.8864223E1,9.090317E0,5.5086544E1,1.6513262E1,7.459587E0,0E0,0E0,2.0951302E1,6.452093E1,9.171661E0,2.1894985E1,9.666994E0,8.829941E0,0E0,0E0,1.7431648E1,1.4185383E1,1.7334036E1,1.6042732E1,4.2391205E-1,0E0,4.1493607E-1,1.8832123E1,1.5013999E1,4.866047E0,5.3096466E0,0E0,1.980906E1,8.84043E0,2.104509E1,4.4095726E1,9.42363E0,0E0,0E0,2.3828999E1,0E0,0E0,6.0485E0,6.597206E0,1.7406647E1,0E0,1.9275116E1,7.570158E0,1.2955762E1,1.3201471E1,1.9022995E1,1.2994392E1,0E0,0E0,0E0,0E0,4.193882E0,0E0,2.2970947E1,1.6611263E1,0E0,4.8886108E-1,9.258076E0,0E0,2.0275307E1,1.6000946E1,0E0,0E0,5.4570465E0,0E0,5.107639E1,2.29328E1,2.9215546E0,0E0,1.4310848E1,7.1385937E0,1.1082594E1,0E0,0E0,3.7277718E0,0E0,0E0,0E0,0E0,0E0,0E0,0E0,0E0,0E0,0E0,0E0,0E0,0E0,0E0,0E0,0E0,0E0,0E0,0E0,0E0,0E0,0E0,0E0,0E0,0E0,0E0,0E0,0E0,0E0,0E0,0E0,0E0,0E0,0E0,0E0,0E0,0E0,0E0,0E0,0E0,0E0,0E0,0E0,0E0],"parents":[2147483647,0,0,1,1,2,2,3,3,4,4,5,5,6,6,7,7,8,8,9,9,10,10,11,11,12,12,13,13,14,14,15,15,16,16,17,17,18,18,19,19,20,20,23,23,24,24,25,25,26,26,27,27,28,28,31,31,32,32,33,33,34,34,35,35,37,37,38,38,39,39,40,40,41,41,43,43,44,44,45,45,46,46,47,47,50,50,53,53,54,54,55,55,57,57,58,58,59,59,60,60,61,61,62,62,67,67,69,69,70,70,72,72,73,73,75,75,76,76,79,79,81,81,82,82,83,83,85,85,86,86,87,87,90,90],"right_children":[2,4,6,8,10,12,14,16,18,20,22,24,26,28,30,32,34,36,38,40,42,-1,-1,44,46,48,50,52,54,-1,-1,56,58,60,62,64,-1,66,68,70,72,74,-1,76,78,80,82,84,-1,-1,86,-1,-1,88,90,92,-1,94,96,98,100,102,104,-1,-1,-1,-1,106,-1,108,110,-1,112,114,-1,116,118,-1,-1,120,-1,122,124,126,-1,128,130,132,-1,-1,134,-1,-1,-1,-1,-1,-1,-1,-1,-1,-1,-1,-1,-1,-1,-1,-1,-1,-1,-1,-1,-1,-1,-1,-1,-1,-1,-1,-1,-1,-1,-1,-1,-1,-1,-1,-1,-1,-1,-1,-1,-1,-1,-1,-1],"split_conditions":[1.4777963E-1,-3.442912E-1,1.6694275E0,-3.5848865E-1,9.533016E-1,1.3974506E0,1.8060082E0,-1.1824398E0,-3.4807873E-1,1.4410697E-1,6.093563E-2,-7.543188E-1,1.5916554E0,-1.2501153E0,2.2569273E-1,3.7184775E-2,-8.640243E-1,1.4822973E0,-2.4984586E-1,9.098284E-1,5.8489597E-1,-1.9373134E-2,-5.6926343E-3,2.857458E0,1.5397097E-1,2.6974578E0,1.3902662E0,-1.3083614E0,2.0711951E0,1.3582733E-2,-2.7115159E-3,-1.0186406E0,-1.2003344E0,-1.4053074E0,-1.1678956E0,8.440727E-1,1.0292694E-3,-5.855403E-1,5.500511E-1,1.1414769E-1,-1.0199744E-1,-8.625895E-1,-0E0,5.6784064E-2,-8.570351E-2,1.2806176E0,1.1190085E0,1.6694028E0,-1.7614588E-3,1.736577E-2,1.6458483E0,-7.838447E-3,1.2369705E-2,-1.2765886E0,2.2932084E0,-1.020201E0,-9.111998E-3,-1.2138561E0,-1.1127968E0,-1.1841015E0,4.2699248E-1,2.2569273E-1,-1.0310129E0,1.8496357E-2,9.6140485E-3,-7.083008E-3,-1.7375E-2,-2.0574175E-1,-7.838447E-3,-8.4384866E-2,4.276033E-1,-3.3001476E-3,-6.505925E-1,4.275566E-1,-1.9E-2,1.4669068E-1,1.856754E0,1.6629291E-3,-1.6E-2,1.2352639E-1,-9.653726E-3,4.2497844E-1,1.1382688E0,1.0863825E0,8.608216E-5,-5.224375E-1,-3.0105752E-1,4.6471256E-1,-1.888E-2,5.892663E-3,-1.8325219E-1,1.2382151E-2,-8.510406E-3,1.2889653E-2,-1.1371046E-2,-1.7789474E-2,-0E0,-1.35216545E-2,6.725634E-3,-5.0480803E-3,1.3063496E-2,3.6706089E-3,-1.2815763E-2,-2.608876E-3,-1.5385168E-2,4.477451E-3,1.859475E-2,4.5141624E-4,-1.1061022E-2,1.6554266E-2,-7.838447E-3,-7.083008E-3,-1.7529411E-2,-1.6181817E-2,3.208924E-3,1.0082687E-2,-2.4190692E-3,1.3853621E-2,1.3197465E-3,1.6024683E-2,8.084388E-3,-6.2973234E-3,2.9161514E-3,-0E0,-1.3702358E-2,4.477451E-3,1.5952136E-2,-1.956067E-4,-1.5060502E-2,-7.0091255E-4,1.6229615E-2,-1.6E-2,5.892663E-3,-0E0,-1.2853752E-2],"split_indices":[10,5,3,10,36,10,23,7,30,23,7,17,5,15,20,26,16,15,9,15,5,0,0,32,9,26,8,15,22,0,0,10,23,16,7,16,0,0,17,29,6,35,0,26,0,20,30,4,0,0,24,0,0,17,22,5,0,5,23,10,37,20,20,0,0,0,0,23,0,20,37,0,1,37,0,22,21,0,0,4,0,10,7,3,0,26,17,0,0,0,1,0,0,0,0,0,0,0,0,0,0,0,0,0,0,0,0,0,0,0,0,0,0,0,0,0,0,0,0,0,0,0,0,0,0,0,0,0,0,0,0,0,0,0,0],"split_type":[0,0,0,0,0,0,0,0,0,0,0,0,0,0,0,0,0,0,0,0,0,0,0,0,0,0,0,0,0,0,0,0,0,0,0,0,0,0,0,0,0,0,0,0,0,0,0,0,0,0,0,0,0,0,0,0,0,0,0,0,0,0,0,0,0,0,0,0,0,0,0,0,0,0,0,0,0,0,0,0,0,0,0,0,0,0,0,0,0,0,0,0,0,0,0,0,0,0,0,0,0,0,0,0,0,0,0,0,0,0,0,0,0,0,0,0,0,0,0,0,0,0,0,0,0,0,0,0,0,0,0,0,0,0,0],"sum_hessian":[1.1040818E3,4.448139E2,6.5926794E2,2.5826346E2,1.8655045E2,6.0290137E2,5.6366592E1,1.986323E2,5.9631165E1,1.4925113E2,3.7299328E1,4.9825897E2,1.0464238E2,4.5619957E1,1.0746637E1,9.087444E1,1.0775785E2,2.8813902E1,3.0817265E1,1.178778E2,3.1373318E1,3.25E1,4.7993274E0,1.2798767E2,3.702713E2,6.0353138E1,4.4289238E1,7.647982E0,3.7971973E1,6.9473095E0,3.7993274E0,6.81278E1,2.2746637E1,3.2366592E1,7.539126E1,2.448991E1,4.323991E0,1.0024664E1,2.07926E1,1.0152915E2,1.6348656E1,2.8323992E1,3.0493274E0,1.18139015E2,9.848655E0,4.7659195E1,3.2261212E2,5.6803814E1,3.5493274E0,6.9719734E0,3.7317265E1,3.2746637E0,4.3733187E0,2.5323992E1,1.2647982E1,6.435314E1,3.7746637E0,1.11973095E1,1.1549328E1,1.1373319E1,2.0993275E1,2.7369955E1,4.80213E1,1.9616592E1,4.8733187E0,3.0246637E0,7E0,1.7517937E1,3.2746637E0,9.025785E1,1.12713E1,5.823991E0,1.0524664E1,8.323991E0,2E1,5.068722E1,6.74518E1,5.5986547E0,4.25E0,4.363453E1,4.024664E0,2.638935E2,5.871861E1,5.222982E1,4.573991E0,2.6795963E1,1.05213E1,7.573991E0,1.775E1,3.323991E0,9.323991E0,6.0828476E1,3.5246637E0,6.1726456E0,5.024664E0,8.5E0,3.0493274E0,7.024664E0,4.3486547E0,4.5493274E0,1.6443947E1,1.6820627E1,1.0549328E1,1.0897982E1,3.7123318E1,3.573991E0,1.3943947E1,6.810986E1,2.2147982E1,7.996637E0,3.2746637E0,3.0246637E0,7.5E0,4.5E0,3.823991E0,2.22926E1,2.8394619E1,5.447982E1,1.2971973E1,2.1891256E1,2.1743275E1,9.098655E1,1.7290695E2,1.7021301E1,4.169731E1,3.573991E0,4.865583E1,1.7271301E1,9.524664E0,3.2993274E0,7.2219734E0,4.25E0,3.323991E0,3.0493274E0,6.274664E0],"tree_param":{"num_deleted":"0","num_feature":"38","num_nodes":"135","size_leaf_vector":"1"}},{"base_weights":[3.3177189E-3,-2.1669987E-1,2.2890335E-1,-1.16450615E-1,-1.122721E0,3.4424236E-1,-6.317176E-1,9.3650585E-1,-1.9002654E-1,-1.571732E-1,-1.7456055E0,2.1262388E-1,1.1412104E0,-1.3364071E0,-1.314556E-1,-3.8437146E-1,1.5147481E0,-5.1238877E-1,4.2877283E-2,-1.4130326E-2,5.9987277E-1,-1.0519602E0,-1.9093776E-2,3.8088906E-1,-4.5937797E-1,1.2933664E0,-6.255848E-3,-1.1954906E-3,-1.6095694E0,2.2192355E-1,-1.3981964E-2,1.3850008E-2,-1.6852127E-2,-7.352068E-4,1.7841984E-2,5.6463215E-3,-8.956053E-1,1.4117573E0,-1.4214872E-1,1.2100394E0,-5.644156E-3,5.0201495E-5,-1.6307613E-2,1.4621963E-1,8.87512E-1,-1.1780846E0,4.9581334E-1,6.5089977E-1,1.6403514E0,-1.713478E0,-7.000609E-3,-1.5948017E-1,1.1380156E0,4.7844288E-1,-1.0869849E0,-1.8601758E-2,-7.170128E-1,-2.717227E-3,1.7656835E0,-1.2082976E0,7.927761E-2,7.276395E-3,1.5720924E-2,4.0596807E-1,-1.0056351E0,-5.538396E-1,1.064006E0,-1.315813E0,3.1511595E-3,8.796566E-1,-9.6802247E-1,-1.5057328E-2,1.0662282E0,1.8189685E-2,1.028835E-3,-1.8567344E-2,-7.0226756E-3,7.417912E-1,-1.0500599E0,1.5635021E-2,5.465188E-3,1.4203666E-2,1.8665881E-3,2.7948965E-3,-1.5693545E-2,1.486973E-3,-1.1567224E-2,1.8602028E-2,7.3954323E-3,-8.3388697E-4,-1.4113798E-2,8.933397E-3,-2.294885E-3,8.773716E-3,4.7037678E-4,1.8850958E-3,-1.6006682E-2,-1.7123656E-2,9.535567E-3,-7.0892284E-3,1.13144005E-2,-1.5850278E-2,-1.6582153E-3,5.99948E-4,1.3152975E-2,-1.5763499E-2,-0E0,1.5026868E-2,1.5103362E-5,1.3541939E-2,-3.4921458E-3,-1.1906432E-3,-1.6935969E-2],"categories":[],"categories_nodes":[],"categories_segments":[],"categories_sizes":[],"default_left":[0,0,0,0,0,0,0,0,0,0,0,0,0,0,0,0,0,0,0,0,0,0,0,0,0,0,0,0,0,0,0,0,0,0,0,0,0,0,0,0,0,0,0,0,0,0,0,0,0,0,0,0,0,0,0,0,0,0,0,0,0,0,0,0,0,0,0,0,0,0,0,0,0,0,0,0,0,0,0,0,0,0,0,0,0,0,0,0,0,0,0,0,0,0,0,0,0,0,0,0,0,0,0,0,0,0,0,0,0,0,0,0,0],"id":1,"left_children":[1,3,5,7,9,11,13,15,17,19,21,23,25,27,29,31,33,35,37,-1,39,41,-1,43,45,47,-1,-1,49,51,-1,-1,-1,-1,-1,53,55,57,59,61,-1,-1,-1,63,65,67,69,71,73,75,-1,77,79,81,83,-1,85,-1,87,89,91,-1,-1,93,95,97,99,101,-1,103,105,-1,107,-1,-1,-1,-1,109,111,-1,-1,-1,-1,-1,-1,-1,-1,-1,-1,-1,-1,-1,-1,-1,-1,-1,-1,-1,-1,-1,-1,-1,-1,-1,-1,-1,-1,-1,-1,-1,-1,-1,-1],"loss_changes":[5.52139E1,5.0876472E1,5.4731705E1,3.9465176E1,3.3135788E1,5.0526917E1,2.2658104E1,2.6101393E1,3.5792713E1,2.2862497E1,1.5347519E0,4.741443E1,1.927687E1,8.566917E0,1.8027182E1,2.7390018E1,1.0312401E1,3.976526E1,7.048029E1,0E0,1.143614E1,5.5539427E0,0E0,3.957493E1,5.8324043E1,1.2836594E1,0E0,0E0,6.191635E-1,1.1299963E1,0E0,0E0,0E0,0E0,0E0,4.4810547E1,1.8215805E1,2.0372566E1,5.8009464E1,4.1570568E-1,0E0,0E0,0E0,6.921298E1,2.7520554E1,1.0446701E1,2.1471588E1,2.3051498E1,1.071727E1,1.15979E0,0E0,1.9326782E1,1.3182993E0,1.6251928E1,1.7818516E1,0E0,3.785663E1,0E0,1.03759E0,9.38369E0,5.144653E1,0E0,0E0,3.177737E1,3.069128E1,2.2880032E1,1.2147476E1,1.332988E1,0E0,1.0376215E1,4.881551E0,0E0,9.486282E0,0E0,0E0,0E0,0E0,8.588526E0,6.8506775E0,0E0,0E0,0E0,0E0,0E0,0E0,0E0,0E0,0E0,0E0,0E0,0E0,0E0,0E0,0E0,0E0,0E0,0E0,0E0,0E0,0E0,0E0,0E0,0E0,0E0,0E0,0E0,0E0,0E0,0E0,0E0,0E0,0E0,0E0],"parents":[2147483647,0,0,1,1,2,2,3,3,4,4,5,5,6,6,7,7,8,8,9,9,10,10,11,11,12,12,13,13,14,14,15,15,16,16,17,17,18,18,20,20,21,21,23,23,24,24,25,25,28,28,29,29,35,35,36,36,37,37,38,38,39,39,43,43,44,44,45,45,46,46,47,47,48,48,49,49,51,51,52,52,53,53,54,54,56,56,58,58,59,59,60,60,63,63,64,64,65,65,66,66,67,67,69,69,70,70,72,72,77,77,78,78],"right_children":[2,4,6,8,10,12,14,16,18,20,22,24,26,28,30,32,34,36,38,-1,40,42,-1,44,46,48,-1,-1,50,52,-1,-1,-1,-1,-1,54,56,58,60,62,-1,-1,-1,64,66,68,70,72,74,76,-1,78,80,82,84,-1,86,-1,88,90,92,-1,-1,94,96,98,100,102,-1,104,106,-1,108,-1,-1,-1,-1,110,112,-1,-1,-1,-1,-1,-1,-1,-1,-1,-1,-1,-1,-1,-1,-1,-1,-1,-1,-1,-1,-1,-1,-1,-1,-1,-1,-1,-1,-1,-1,-1,-1,-1,-1],"split_conditions":[2.9984224E-1,2.1131477E-1,1.6639333E0,-1.2937782E0,-9.524168E-1,1.5225868E0,1.723078E0,-8.478336E-1,-3.5848865E-1,1.3594241E-1,4.2756414E-1,1.1820638E0,1.6923935E0,1.6751691E0,2.0473848E-1,-1.3060861E0,-1.337695E0,-1.1582212E0,-3.4807873E-1,-1.4130326E-2,-3.496757E-1,-8.081947E-1,-1.9093776E-2,1.0813581E0,4.47569E-1,1.5084674E0,-6.255848E-3,-1.1954906E-3,1.7520466E0,1.8060082E0,-1.3981964E-2,1.3850008E-2,-1.6852127E-2,-7.352068E-4,1.7841984E-2,4.1203204E-1,-1.0001509E0,-5.2289486E-1,-1.0964713E-1,2.3790208E-1,-5.644156E-3,5.0201495E-5,-1.6307613E-2,9.449381E-1,-1.5185466E0,1.11632E0,-2.9350033E-1,-1.098261E0,1.7174095E0,1.7203301E0,-7.000609E-3,1.7431257E0,4.280571E-1,-1.0399815E0,-1.1303852E0,-1.8601758E-2,-1.0095677E0,-2.717227E-3,6.4520913E-1,-3.3772078E-1,-1.7076463E-2,7.276395E-3,1.5720924E-2,3.558367E-1,-9.2672753E-1,1.4349134E0,-1.1829209E0,9.903969E-1,3.1511595E-3,-1.3082116E0,1.4148812E0,-1.5057328E-2,5.808692E-1,1.8189685E-2,1.028835E-3,-1.8567344E-2,-7.0226756E-3,-7.632728E-1,4.2804798E-1,1.5635021E-2,5.465188E-3,1.4203666E-2,1.8665881E-3,2.7948965E-3,-1.5693545E-2,1.486973E-3,-1.1567224E-2,1.8602028E-2,7.3954323E-3,-8.3388697E-4,-1.4113798E-2,8.933397E-3,-2.294885E-3,8.773716E-3,4.7037678E-4,1.8850958E-3,-1.6006682E-2,-1.7123656E-2,9.535567E-3,-7.0892284E-3,1.13144005E-2,-1.5850278E-2,-1.6582153E-3,5.99948E-4,1.3152975E-2,-1.5763499E-2,-0E0,1.5026868E-2,1.5103362E-5,1.3541939E-2,-3.4921458E-3,-1.1906432E-3,-1.6935969E-2],"split_indices":[10,7,29,6,14,10,23,21,10,10,37,4,4,9,13,2,2,7,30,0,0,26,0,10,26,24,0,0,10,23,0,0,0,0,0,18,35,9,10,35,0,0,0,30,21,31,14,19,7,4,0,24,37,14,2,0,16,0,1,29,29,0,0,7,14,10,19,1,0,13,10,0,0,0,0,0,0,14,37,0,0,0,0,0,0,0,0,0,0,0,0,0,0,0,0,0,0,0,0,0,0,0,0,0,0,0,0,0,0,0,0,0,0],"split_type":[0,0,0,0,0,0,0,0,0,0,0,0,0,0,0,0,0,0,0,0,0,0,0,0,0,0,0,0,0,0,0,0,0,0,0,0,0,0,0,0,0,0,0,0,0,0,0,0,0,0,0,0,0,0,0,0,0,0,0,0,0,0,0,0,0,0,0,0,0,0,0,0,0,0,0,0,0,0,0,0,0,0,0,0,0,0,0,0,0,0,0,0,0,0,0,0,0,0,0,0,0,0,0,0,0,0,0,0,0,0,0,0,0],"sum_hessian":[1.1104237E3,5.61945E2,5.4847864E2,5.0707697E2,5.4868053E1,4.8429095E2,6.4187675E1,3.226337E1,4.748136E2,2.2069885E1,3.279817E1,4.1684216E2,6.744879E1,2.5872005E1,3.8315674E1,9.8729515E0,2.2390419E1,1.9883517E2,2.7597842E2,8.024188E0,1.4045698E1,7.7991905E0,2.4998978E1,3.3383414E2,8.3008026E1,6.239952E1,5.04927E0,5.0737343E0,2.0798271E1,3.054147E1,7.7742033E0,4.1231604E0,5.7497907E0,3.2992263E0,1.9091192E1,8.485367E1,1.13981514E2,3.2136078E1,2.4384235E2,9.246497E0,4.799201E0,3.0492833E0,4.749907E0,2.2916852E2,1.0466562E2,4.7294193E1,3.5713837E1,2.2992115E1,3.9407406E1,1.7773764E1,3.0245073E0,2.2069752E1,8.471718E0,5.9682056E1,2.5171608E1,1.6248474E1,9.773304E1,5.5737543E0,2.6562325E1,4.124516E1,2.0259718E2,5.3732014E0,3.8732953E0,1.8759857E2,4.1569958E1,1.1123122E1,9.3542496E1,4.3470383E1,3.823811E0,2.866481E1,7.049025E0,3.25E0,1.9742115E1,3.5083416E1,4.323991E0,1.4749224E1,3.0245402E0,1.0996262E1,1.107349E1,3.873208E0,4.59851E0,1.311955E1,4.6562508E1,6.6230025E0,1.8548605E1,3.306612E1,6.4666916E1,2.3488495E1,3.0738306E0,6.598409E0,3.4646748E1,5.528056E1,1.4731662E2,8.034886E1,1.0724971E2,1.3996385E1,2.7573572E1,6.2499886E0,4.873134E0,3.0246594E0,9.051784E1,3.4847317E1,8.623066E0,1.0422346E1,1.8242464E1,3.9998534E0,3.0491717E0,1.364384E1,6.098275E0,6.9471273E0,4.049134E0,5.0737615E0,5.999729E0],"tree_param":{"num_deleted":"0","num_feature":"38","num_nodes":"113","size_leaf_vector":"1"}},{"base_weights":[-8.25607E-3,-1.9134599E-1,2.3711698E-1,7.9291534E-1,-2.567315E-1,2.8124335E-1,-1.5316442E0,1.158559E0,2.5364494E-1,-9.695158E-2,-1.0518572E0,2.043229E-1,1.1587743E0,-6.948493E-3,-1.735881E-2,4.2804247E-1,1.6721845E-2,-1.6405193E-2,1.1095173E0,-3.4536306E-2,-1.5641317E0,-6.3911945E-1,-1.6762981E0,3.2920226E-1,-2.8679636E-1,4.2373458E-1,1.462429E0,9.6564996E-1,-7.1173287E-3,1.5473679E-2,-6.696441E-4,7.6863444E-1,-1.2392372E-1,-6.78771E-4,-1.8488621E-2,7.139221E-1,-1.0799251E0,-1.8166502E0,-5.5272556E-3,2.0530863E-1,9.6418405E-1,3.4314737E-1,-8.9707035E-1,-5.0369413E-3,1.0523576E0,1.6571683E0,-0E0,1.4734334E-2,3.1332772E-3,-4.420818E-1,9.675793E-1,-2.123591E-1,9.285958E-1,-9.040603E-3,1.3167619E0,1.8622755E-1,-1.4888362E0,-6.833585E-3,-1.902639E-2,1.7854482E-2,1.4039615E-1,1.1378047E0,-9.617215E-3,-9.438857E-1,7.5522655E-1,-1.8385427E-2,-4.6359232E-1,4.285993E-3,1.4672722E-2,1.8508893E-2,8.239567E-3,7.5318757E-3,-1.5073082E-2,7.404963E-3,1.37877725E-2,-1.463714E-3,-1.3298783E-2,1.7522415E-2,-9.539605E-4,3.2568355E-3,1.7387709E-2,-1.1982918E-2,1.5271233E-2,1.953806E-4,-1.7167272E-2,1.947339E-3,-1.4218144E-2,-6.9554467E-3,1.2706367E-2,-4.4613486E-4,-1.6427679E-2,-4.9806447E-3,9.749819E-3,-1.0699004E-2,1.1339522E-3],"categories":[],"categories_nodes":[],"categories_segments":[],"categories_sizes":[],"default_left":[0,0,0,0,0,0,0,0,0,0,0,0,0,0,0,0,0,0,0,0,0,0,0,0,0,0,0,0,0,0,0,0,0,0,0,0,0,0,0,0,0,0,0,0,0,0,0,0,0,0,0,0,0,0,0,0,0,0,0,0,0,0,0,0,0,0,0,0,0,0,0,0,0,0,0,0,0,0,0,0,0,0,0,0,0,0,0,0,0,0,0,0,0,0,0],"id":2,"left_children":[1,3,5,7,9,11,13,15,17,19,21,23,25,-1,-1,27,-1,-1,29,31,33,35,37,39,41,43,45,47,-1,-1,-1,49,51,-1,-1,53,55,57,-1,59,61,63,65,-1,67,69,-1,-1,-1,71,73,75,77,-1,79,81,83,-1,-1,-1,85,87,-1,89,91,-1,93,-1,-1,-1,-1,-1,-1,-1,-1,-1,-1,-1,-1,-1,-1,-1,-1,-1,-1,-1,-1,-1,-1,-1,-1,-1,-1,-1,-1],"loss_changes":[4.9359245E1,4.0660385E1,3.6935493E1,7.3261127E0,7.488066E1,3.0595558E1,5.201378E-1,7.728739E0,2.9805275E1,4.4969658E1,2.4135414E1,2.6049994E1,7.373249E0,0E0,0E0,7.4203186E0,0E0,0E0,6.7140846E0,3.408683E1,8.222839E0,3.7271088E1,4.840454E0,2.6274414E1,3.348391E1,7.7094173E0,7.0789413E0,1.9837947E0,0E0,0E0,0E0,1.1929365E1,3.9947903E1,0E0,0E0,1.6417898E1,2.45173E1,1.7317276E0,0E0,2.870816E1,1.9427994E1,2.3518654E1,1.6922035E1,0E0,1.1669626E0,1.8208847E0,0E0,0E0,0E0,1.0535545E1,2.6150436E0,2.8828028E1,2.8384134E1,0E0,4.1605587E0,2.4506329E1,1.2361549E1,0E0,0E0,0E0,2.342503E1,1.330101E1,0E0,6.560094E0,9.680782E0,0E0,1.1278099E1,0E0,0E0,0E0,0E0,0E0,0E0,0E0,0E0,0E0,0E0,0E0,0E0,0E0,0E0,0E0,0E0,0E0,0E0,0E0,0E0,0E0,0E0,0E0,0E0,0E0,0E0,0E0,0E0],"parents":[2147483647,0,0,1,1,2,2,3,3,4,4,5,5,6,6,7,7,8,8,9,9,10,10,11,11,12,12,15,15,18,18,19,19,20,20,21,21,22,22,23,23,24,24,25,25,26,26,27,27,31,31,32,32,35,35,36,36,37,37,39,39,40,40,41,41,42,42,44,44,45,45,49,49,50,50,51,51,52,52,54,54,55,55,56,56,60,60,61,61,63,63,64,64,66,66],"right_children":[2,4,6,8,10,12,14,16,18,20,22,24,26,-1,-1,28,-1,-1,30,32,34,36,38,40,42,44,46,48,-1,-1,-1,50,52,-1,-1,54,56,58,-1,60,62,64,66,-1,68,70,-1,-1,-1,72,74,76,78,-1,80,82,84,-1,-1,-1,86,88,-1,90,92,-1,94,-1,-1,-1,-1,-1,-1,-1,-1,-1,-1,-1,-1,-1,-1,-1,-1,-1,-1,-1,-1,-1,-1,-1,-1,-1,-1,-1,-1],"split_conditions":[2.2962348E-1,-1.1807288E0,1.7676051E0,-2.6701447E-1,9.533016E-1,1.737868E0,-8.402205E-1,-1.2152262E0,9.767619E-2,1.6694275E0,-1.0475928E0,6.6879314E-1,1.5084674E0,-6.948493E-3,-1.735881E-2,-5.224375E-1,1.6721845E-2,-1.6405193E-2,-3.237968E-1,-1.4460437E0,1.6462673E0,-1.2028975E0,6.093563E-2,1.3909423E0,1.005027E0,-5.224375E-1,1.7604951E0,-1.2447183E0,-7.1173287E-3,1.5473679E-2,-6.696441E-4,-1.0555358E0,1.5225868E0,-6.78771E-4,-1.8488621E-2,-1.3277109E0,-1.2105808E0,-1.245821E0,-5.5272556E-3,-1.327225E0,1.3961791E0,4.7796777E-1,1.4764929E0,-5.0369413E-3,1.5009457E0,1.7939321E0,-0E0,1.4734334E-2,3.1332772E-3,1.3594241E-1,1.1106584E0,1.3243678E-1,1.6712707E0,-9.040603E-3,-1.2491016E0,6.600642E-1,-1.404619E0,-6.833585E-3,-1.902639E-2,1.7854482E-2,1.6275607E0,4.865927E-2,-9.617215E-3,-5.2967083E-1,8.313026E-2,-1.8385427E-2,1.4524722E0,4.285993E-3,1.4672722E-2,1.8508893E-2,8.239567E-3,7.5318757E-3,-1.5073082E-2,7.404963E-3,1.37877725E-2,-1.463714E-3,-1.3298783E-2,1.7522415E-2,-9.539605E-4,3.2568355E-3,1.7387709E-2,-1.1982918E-2,1.5271233E-2,1.953806E-4,-1.7167272E-2,1.947339E-3,-1.4218144E-2,-6.9554467E-3,1.2706367E-2,-4.4613486E-4,-1.6427679E-2,-4.9806447E-3,9.749819E-3,-1.0699004E-2,1.1339522E-3],"split_indices":[18,7,25,18,36,10,15,6,16,3,2,26,24,0,0,26,0,0,31,17,7,14,7,18,15,26,8,10,0,0,0,18,10,0,0,15,18,31,0,7,24,27,16,0,2,10,0,0,0,10,6,18,6,0,12,17,0,0,0,0,10,10,0,17,10,0,26,0,0,0,0,0,0,0,0,0,0,0,0,0,0,0,0,0,0,0,0,0,0,0,0,0,0,0,0],"split_type":[0,0,0,0,0,0,0,0,0,0,0,0,0,0,0,0,0,0,0,0,0,0,0,0,0,0,0,0,0,0,0,0,0,0,0,0,0,0,0,0,0,0,0,0,0,0,0,0,0,0,0,0,0,0,0,0,0,0,0,0,0,0,0,0,0,0,0,0,0,0,0,0,0,0,0,0,0,0,0,0,0,0,0,0,0,0,0,0,0,0,0,0,0,0,0],"sum_hessian":[1.0967872E3,6.2846985E2,4.6831738E2,3.83608E1,5.90109E2,4.5779404E2,1.0523341E1,2.2065693E1,1.6295109E1,4.9240778E2,9.770127E1,4.221381E2,3.565595E1,3.0242496E0,7.4990916E0,9.946752E0,1.211894E1,4.749714E0,1.1545395E1,4.7336218E2,1.904559E1,6.0136436E1,3.7564835E1,3.3698462E2,8.5153465E1,1.1220324E1,2.4435625E1,6.922205E0,3.0245469E0,8.246171E0,3.299224E0,4.653296E1,4.2682922E2,3.2989979E0,1.5746592E1,1.456945E1,4.556699E1,3.276599E1,4.7988443E0,2.8320773E2,5.3776894E1,4.203623E1,4.311724E1,4.5488734E0,6.67145E0,2.1386543E1,3.0490816E0,3.0983357E0,3.8238695E0,6.323759E0,4.0209198E1,3.945697E2,3.225951E1,3.7741983E0,1.0795252E1,1.1196906E1,3.4370083E1,3.023797E0,2.9742193E1,1.0068484E1,2.7313925E2,4.9752804E1,4.024089E0,9.82304E0,3.221319E1,1.2498858E1,3.0618382E1,3.5734022E0,3.0980477E0,1.6263813E1,5.1227317E0,3.0737832E0,3.249976E0,2.7864899E1,1.2344299E1,3.7372247E2,2.084724E1,1.7538734E1,1.4720777E1,3.8238158E0,6.971436E0,5.524475E0,5.672431E0,4.5736017E0,2.979648E1,2.6486588E2,8.273365E0,3.0241635E0,4.6728638E1,4.8234663E0,4.999574E0,4.548878E0,2.7664309E1,1.4597799E1,1.6020582E1],"tree_param":{"num_deleted":"0","num_feature":"38","num_nodes":"95","size_leaf_vector":"1"}},{"base_weights":[-9.068312E-3,-3.3328596E-1,1.235302E-1,-7.193782E-1,-0E0,1.5277253E-1,-1.5774083E0,-9.77097E-1,6.5676343E-1,9.7164387E-1,-1.5913089E-1,9.477194E-2,1.0398741E0,-6.9035147E-3,-1.7620742E-2,6.0327034E-2,-1.1524493E0,1.6081281E0,-4.8551178E-1,1.5912706E0,-1.6148593E-2,-9.148713E-1,8.391656E-2,7.6398116E-1,1.3094063E-2,1.3623043E0,-6.1479825E-1,1.0629447E0,-8.800229E-1,-1.4928751E0,-6.696785E-1,1.7857194E-2,7.400262E-3,1.3806042E-2,-1.7088132E-2,5.8412473E-3,1.816129E-2,-1.6025292E-2,1.3249185E-2,-1.2394603E0,1.0728936E-2,-1.5806542E-1,8.4001267E-1,9.4626737E-1,-7.283992E-1,-7.4628603E-1,1.0801419E-1,1.5768399E0,7.25277E-1,7.5554997E-3,-1.5802668E-2,1.3306088E-2,4.4891364E-3,1.4665816E-4,-1.6117627E-2,-1.5727625E0,1.8586931E-4,-1.3215387E0,-7.1559496E-2,-1.4746014E0,5.79179E-3,-3.091664E-1,1.0645615E0,1.6705643E-2,8.834448E-2,1.0899014E0,-6.7812866E-3,2.1438326E-3,-1.5595483E-2,-4.3510836E-1,-1.6819466E0,1.1189479E0,5.1770363E-2,1.7464964E-2,5.437364E-3,-2.7842994E-3,1.2366444E0,-2.586082E-3,-1.65646E-2,-1.6994655E-2,7.4294265E-3,3.263364E-3,-1.5867664E-2,-1.8682536E-2,-6.7651835E-3,-5.3883204E-3,7.7254083E-3,1.3346243E-2,4.469515E-3,1.2024351E-2,-5.993064E-3,5.279593E-4,1.3190814E-2,-1.6495666E-3,-1.7546296E-2,-1.8360918E-2,-6.8369512E-3,-1.0466009E-2,1.5446459E-2,-1.2076116E-2,1.168421E-3,1.5586764E-2,5.644667E-3],"categories":[],"categories_nodes":[],"categories_segments":[],"categories_sizes":[],"default_left":[0,0,0,0,0,0,0,0,0,0,0,0,0,0,0,0,0,0,0,0,0,0,0,0,0,0,0,0,0,0,0,0,0,0,0,0,0,0,0,0,0,0,0,0,0,0,0,0,0,0,0,0,0,0,0,0,0,0,0,0,0,0,0,0,0,0,0,0,0,0,0,0,0,0,0,0,0,0,0,0,0,0,0,0,0,0,0,0,0,0,0,0,0,0,0,0,0,0,0,0,0,0,0],"id":3,"left_children":[1,3,5,7,9,11,13,15,17,19,21,23,25,-1,-1,27,29,31,33,35,37,39,41,43,45,47,49,51,53,55,57,-1,-1,-1,-1,-1,-1,-1,-1,59,-1,61,63,65,67,69,71,73,75,-1,-1,-1,-1,-1,-1,77,-1,79,81,83,-1,85,87,-1,89,91,-1,-1,-1,93,95,97,99,-1,-1,-1,101,-1,-1,-1,-1,-1,-1,-1,-1,-1,-1,-1,-1,-1,-1,-1,-1,-1,-1,-1,-1,-1,-1,-1,-1,-1,-1],"loss_changes":[4.748269E1,4.133128E1,3.9063107E1,5.340969E1,2.6976173E1,3.9463158E1,7.1214294E-1,2.304612E1,2.6965027E1,1.5219351E1,2.7602383E1,3.953983E1,2.6049622E1,0E0,0E0,1.8907679E1,1.6477829E1,4.870491E-1,2.8923492E1,2.1343307E0,2.4271194E1,2.4922514E1,2.1033531E1,2.212336E1,4.667286E1,4.064598E0,1.2287073E1,8.2236767E-1,6.941114E0,7.6955414E0,1.787933E1,0E0,0E0,0E0,0E0,0E0,0E0,0E0,0E0,1.4593037E1,0E0,1.6325716E1,1.7072256E1,1.7261242E1,7.578291E0,1.999865E1,3.259557E1,3.86911E0,6.596475E0,0E0,0E0,0E0,0E0,0E0,0E0,5.886734E0,0E0,1.8595478E1,1.5936011E1,7.4650993E0,0E0,1.983935E1,8.468189E-1,0E0,1.2843924E1,1.5323151E1,0E0,0E0,0E0,1.9269058E1,1.1889076E0,2.953767E1,4.4868355E1,0E0,0E0,0E0,6.8197155E-1,0E0,0E0,0E0,0E0,0E0,0E0,0E0,0E0,0E0,0E0,0E0,0E0,0E0,0E0,0E0,0E0,0E0,0E0,0E0,0E0,0E0,0E0,0E0,0E0,0E0,0E0],"parents":[2147483647,0,0,1,1,2,2,3,3,4,4,5,5,6,6,7,7,8,8,9,9,10,10,11,11,12,12,15,15,16,16,17,17,18,18,19,19,20,20,21,21,22,22,23,23,24,24,25,25,26,26,27,27,28,28,29,29,30,30,39,39,41,41,42,42,43,43,44,44,45,45,46,46,47,47,48,48,55,55,57,57,58,58,59,59,61,61,62,62,64,64,65,65,69,69,70,70,71,71,72,72,76,76],"right_children":[2,4,6,8,10,12,14,16,18,20,22,24,26,-1,-1,28,30,32,34,36,38,40,42,44,46,48,50,52,54,56,58,-1,-1,-1,-1,-1,-1,-1,-1,60,-1,62,64,66,68,70,72,74,76,-1,-1,-1,-1,-1,-1,78,-1,80,82,84,-1,86,88,-1,90,92,-1,-1,-1,94,96,98,100,-1,-1,-1,102,-1,-1,-1,-1,-1,-1,-1,-1,-1,-1,-1,-1,-1,-1,-1,-1,-1,-1,-1,-1,-1,-1,-1,-1,-1,-1],"split_conditions":[-5.462526E-1,1.4777963E-1,1.7676051E0,1.2008321E0,2.471769E-1,1.737868E0,-1.3091327E0,-1.1855206E0,-1.0644848E0,-4.3345737E-1,-1.3910198E-1,-1.1548113E0,1.6772351E0,-6.9035147E-3,-1.7620742E-2,-3.0144325E-1,-7.1418405E-1,5.835409E-1,-5.163532E-1,-9.2904145E-1,1.5006955E-1,1.694902E0,2.3790208E-1,-1.1807288E0,-3.7930134E-1,1.7939321E0,-4.402239E-1,-9.118519E-1,-1.3112904E0,9.8096734E-1,-3.603979E-1,1.7857194E-2,7.400262E-3,1.3806042E-2,-1.7088132E-2,5.8412473E-3,1.816129E-2,-1.6025292E-2,1.3249185E-2,1.6172332E0,1.0728936E-2,1.4900717E0,-1.1301554E0,4.4621414E-1,-3.067732E-1,-5.2949476E-1,-3.4093085E-1,1.6781129E0,-3.2034424E-1,7.5554997E-3,-1.5802668E-2,1.3306088E-2,4.4891364E-3,1.4665816E-4,-1.6117627E-2,-1.6580223E0,1.8586931E-4,1.9307503E0,1.4410697E-1,1.1492221E0,5.79179E-3,8.708298E-2,1.8799928E0,1.6705643E-2,7.045616E-1,-5.0806624E-1,-6.7812866E-3,2.1438326E-3,-1.5595483E-2,-4.3960786E-1,1.0730335E0,-4.7439697E-1,-9.572866E-2,1.7464964E-2,5.437364E-3,-2.7842994E-3,3.091838E-1,-2.586082E-3,-1.65646E-2,-1.6994655E-2,7.4294265E-3,3.263364E-3,-1.5867664E-2,-1.8682536E-2,-6.7651835E-3,-5.3883204E-3,7.7254083E-3,1.3346243E-2,4.469515E-3,1.2024351E-2,-5.993064E-3,5.279593E-4,1.3190814E-2,-1.6495666E-3,-1.7546296E-2,-1.8360918E-2,-6.8369512E-3,-1.0466009E-2,1.5446459E-2,-1.2076116E-2,1.168421E-3,1.5586764E-2,5.644667E-3],"split_indices":[18,10,25,35,6,10,12,22,16,27,19,25,6,0,0,0,12,1,9,27,23,7,35,7,10,10,11,3,18,22,22,0,0,0,0,0,0,0,0,21,0,1,13,19,14,22,25,9,1,0,0,0,0,0,0,0,0,19,23,22,0,20,1,0,22,19,0,0,0,3,16,8,10,0,0,0,12,0,0,0,0,0,0,0,0,0,0,0,0,0,0,0,0,0,0,0,0,0,0,0,0,0,0],"split_type":[0,0,0,0,0,0,0,0,0,0,0,0,0,0,0,0,0,0,0,0,0,0,0,0,0,0,0,0,0,0,0,0,0,0,0,0,0,0,0,0,0,0,0,0,0,0,0,0,0,0,0,0,0,0,0,0,0,0,0,0,0,0,0,0,0,0,0,0,0,0,0,0,0,0,0,0,0,0,0,0,0,0,0,0,0,0,0,0,0,0,0,0,0,0,0,0,0,0,0,0,0,0,0],"sum_hessian":[1.1020398E3,3.1966504E2,7.8237476E2,1.4769539E2,1.7196965E2,7.7010425E2,1.2270561E1,1.24703926E2,2.2991457E1,2.3566347E1,1.484033E2,7.239879E2,4.6116314E1,3.0240757E0,9.246486E0,1.8043015E1,1.0666091E2,1.2369233E1,1.0622225E1,1.4168788E1,9.397559E0,3.55403E1,1.12863E2,7.771007E1,6.4627783E2,3.879402E1,7.322294E0,8.72076E0,9.322255E0,6.1203682E1,4.545723E1,9.2954E0,3.0738335E0,4.1227446E0,6.49948E0,3.3238142E0,1.0844974E1,4.249878E0,5.147681E0,3.0918304E1,4.621995E0,8.599859E1,2.6864414E1,6.963721E1,8.072867E0,7.0927536E1,5.753503E2,2.7799517E1,1.0994504E1,3.073599E0,4.2486954E0,5.147174E0,3.5735862E0,4.5735426E0,4.748713E0,5.8155514E1,3.0481694E0,2.1092682E1,2.4364546E1,2.7594618E1,3.3236873E0,7.7277054E1,8.721531E0,1.2118562E1,1.47458515E1,6.4338776E1,5.29843E0,4.073732E0,3.9991353E0,5.440551E1,1.6522024E1,2.9233372E1,5.4611694E2,2.3201956E1,4.5975604E0,3.7986045E0,7.1958995E0,3.7985308E0,5.4356983E1,1.801929E1,3.073392E0,1.986626E1,4.498286E0,1.74977E1,1.0096918E1,6.423347E1,1.30435915E1,5.1477194E0,3.5738115E0,5.3976746E0,9.348177E0,1.1946068E1,5.2392704E1,4.6156475E1,8.249032E0,1.3498213E1,3.0238118E0,4.5243425E0,2.470903E1,2.5893118E1,5.202238E2,3.8728495E0,3.32305E0],"tree_param":{"num_deleted":"0","num_feature":"38","num_nodes":"103","size_leaf_vector":"1"}},{"base_weights":[-2.4166198E-3,-3.212243E-1,1.1712564E-1,-5.1722306E-1,3.1709227E-1,1.4438702E-1,-1.7706305E-2,-1.0040029E0,-1.3335256E-1,-1.0491631E-1,1.4938679E0,5.490838E-2,6.1567134E-1,-3.6596617E-1,-1.3557569E0,8.1480426E-1,-4.2970476E-1,6.7757475E-1,-6.1178714E-1,-7.2512566E-4,1.8336797E-2,7.029945E-1,-2.893413E-2,1.3512663E0,2.9277083E-1,-8.0022824E-1,1.3485807E-2,-4.4902E-1,-1.6560593E0,1.4446001E0,-7.150912E-2,4.1459972E-1,-8.2936585E-1,-7.7497116E-3,9.87513E-1,-9.016671E-1,7.2921272E-3,9.5811903E-1,-9.334813E-1,-8.374458E-1,8.339648E-2,-2.4116454E-3,1.6332358E0,-1.5583757E-1,1.0941411E0,7.15348E-1,-1.3390741E0,1.1765767E0,-1.7551357E-2,-1.2674156E0,-1.8768316E-2,5.8047613E-3,1.5890734E-2,-1.0467088E0,1.3196472E-2,7.1237075E-1,-1.0884091E-2,-1.1256984E0,5.1785535E-1,-8.970513E-4,1.2392213E0,4.497374E-1,-1.4206405E0,1.0848222E0,-9.012645E-3,-1.6264534E-2,-4.2253907E-4,7.6363605E-1,-1.1692401E0,6.236447E-1,-6.686044E-2,1.771434E-2,1.0367447E0,2.758741E-1,-1.0727377E0,1.2357544E0,-9.2017767E-4,1.54665895E-2,-2.5692065E-3,-1.6616518E-2,-3.1159404E-3,4.635133E-3,1.5838243E-2,-1.4936303E-2,1.4971037E-4,4.2583197E-5,-1.6221583E-2,-1.4454217E-3,1.2105951E-2,-3.6628603E-3,-1.569521E-2,-4.4454294E-3,1.5116909E-2,1.686958E-2,1.0081313E-3,9.586257E-3,-1.694985E-3,-1.6574016E-2,-3.5640912E-3,4.927976E-4,1.4033117E-2,1.3634828E-2,-7.5957817E-3,-5.4076556E-3,-1.7095271E-2,7.0005674E-3,-1.4884763E-2,-2.3914413E-3,6.448972E-3,1.3662982E-2,4.189726E-3,7.5348658E-3,-7.043298E-3,-1.637906E-2,5.420078E-3,1.4850749E-2,6.817608E-3],"categories":[],"categories_nodes":[],"categories_segments":[],"categories_sizes":[],"default_left":[0,0,0,0,0,0,0,0,0,0,0,0,0,0,0,0,0,0,0,0,0,0,0,0,0,0,0,0,0,0,0,0,0,0,0,0,0,0,0,0,0,0,0,0,0,0,0,0,0,0,0,0,0,0,0,0,0,0,0,0,0,0,0,0,0,0,0,0,0,0,0,0,0,0,0,0,0,0,0,0,0,0,0,0,0,0,0,0,0,0,0,0,0,0,0,0,0,0,0,0,0,0,0,0,0,0,0,0,0,0,0,0,0,0,0,0,0],"id":4,"left_children":[1,3,5,7,9,11,-1,13,15,17,19,21,23,25,27,29,31,33,35,-1,-1,37,39,41,43,45,-1,47,49,51,53,55,57,-1,59,61,-1,63,65,67,69,-1,71,73,75,77,79,81,-1,83,-1,-1,-1,85,-1,87,-1,89,91,-1,93,95,97,99,-1,-1,-1,101,103,105,107,-1,109,111,113,115,-1,-1,-1,-1,-1,-1,-1,-1,-1,-1,-1,-1,-1,-1,-1,-1,-1,-1,-1,-1,-1,-1,-1,-1,-1,-1,-1,-1,-1,-1,-1,-1,-1,-1,-1,-1,-1,-1,-1,-1,-1],"loss_changes":[4.2249985E1,3.801793E1,4.1555305E1,4.3078762E1,3.5824078E1,3.3431847E1,0E0,2.221508E1,3.7093975E1,2.1639093E1,1.0428745E1,3.64705E1,2.9512333E1,2.9098854E1,1.6814613E1,1.7788462E1,3.4286423E1,1.0439043E1,1.3537579E1,0E0,0E0,3.2992947E1,5.4065254E1,1.7708588E1,3.2388046E1,2.6140806E1,0E0,3.9682423E1,1.4738464E0,1.1690903E0,2.0273584E1,1.5446243E1,2.8031616E1,0E0,5.151884E0,2.0174719E1,0E0,1.6793262E1,6.4480762E0,3.9512676E1,4.2477398E1,0E0,5.7653046E-1,2.3366705E1,5.649334E0,7.534778E0,6.9375687E0,1.5137024E0,0E0,6.2150993E0,0E0,0E0,0E0,5.4898424E0,0E0,1.2274146E1,0E0,1.8311401E1,1.3206182E1,0E0,7.2297E0,2.8873353E0,4.327877E0,2.0656013E1,0E0,0E0,0E0,1.2991865E1,1.942868E1,1.9337204E1,5.0294918E1,0E0,1.019103E0,1.9360477E1,1.8219767E1,2.7731285E0,0E0,0E0,0E0,0E0,0E0,0E0,0E0,0E0,0E0,0E0,0E0,0E0,0E0,0E0,0E0,0E0,0E0,0E0,0E0,0E0,0E0,0E0,0E0,0E0,0E0,0E0,0E0,0E0,0E0,0E0,0E0,0E0,0E0,0E0,0E0,0E0,0E0,0E0,0E0,0E0,0E0],"parents":[2147483647,0,0,1,1,2,2,3,3,4,4,5,5,7,7,8,8,9,9,10,10,11,11,12,12,13,13,14,14,15,15,16,16,17,17,18,18,21,21,22,22,23,23,24,24,25,25,27,27,28,28,29,29,30,30,31,31,32,32,34,34,35,35,37,37,38,38,39,39,40,40,42,42,43,43,44,44,45,45,46,46,47,47,49,49,53,53,55,55,57,57,58,58,60,60,61,61,62,62,63,63,67,67,68,68,69,69,70,70,72,72,73,73,74,74,75,75],"right_children":[2,4,6,8,10,12,-1,14,16,18,20,22,24,26,28,30,32,34,36,-1,-1,38,40,42,44,46,-1,48,50,52,54,56,58,-1,60,62,-1,64,66,68,70,-1,72,74,76,78,80,82,-1,84,-1,-1,-1,86,-1,88,-1,90,92,-1,94,96,98,100,-1,-1,-1,102,104,106,108,-1,110,112,114,116,-1,-1,-1,-1,-1,-1,-1,-1,-1,-1,-1,-1,-1,-1,-1,-1,-1,-1,-1,-1,-1,-1,-1,-1,-1,-1,-1,-1,-1,-1,-1,-1,-1,-1,-1,-1,-1,-1,-1,-1,-1],"split_conditions":[-6.1567575E-1,7.8814787E-1,1.7676051E0,1.4777963E-1,1.171306E0,1.338479E0,-1.7706305E-2,-4.014212E-1,3.2899165E-1,-1.117161E0,-1.2353406E0,-1.1548113E0,5.170273E-1,1.9307503E0,-9.0945834E-1,-5.0216925E-1,-1.4700874E0,-1.3335434E0,1.1780841E0,-7.2512566E-4,1.8336797E-2,-1.020201E0,-3.5848865E-1,-7.708317E-4,1.4148812E0,-1.2887626E0,1.3485807E-2,-7.6471096E-1,-4.9343848E-1,-1.6580223E0,3.0582586E-1,1.7561009E0,7.094565E-2,-7.7497116E-3,-1.3191534E0,-5.224375E-1,7.2921272E-3,3.96979E-1,4.2715052E-1,-1.2807627E0,-5.098128E-1,-2.4116454E-3,1.1845453E0,1.2677995E0,1.6242987E0,-1.1582212E0,5.098258E-1,-1.2215362E0,-1.7551357E-2,-5.7154065E-1,-1.8768316E-2,5.8047613E-3,1.5890734E-2,1.0443081E-1,1.3196472E-2,1.2088169E0,-1.0884091E-2,-5.1847816E-1,2.7895886E-1,-8.970513E-4,-1.0970044E0,-1.5569241E-1,6.1610717E-1,-5.0806624E-1,-9.012645E-3,-1.6264534E-2,-4.2253907E-4,-1.0792078E0,-1.5312707E-1,1.7279065E0,1.3383936E0,1.771434E-2,-3.6389604E-2,6.96424E-1,1.6215627E0,1.9311167E0,-9.2017767E-4,1.54665895E-2,-2.5692065E-3,-1.6616518E-2,-3.1159404E-3,4.635133E-3,1.5838243E-2,-1.4936303E-2,1.4971037E-4,4.2583197E-5,-1.6221583E-2,-1.4454217E-3,1.2105951E-2,-3.6628603E-3,-1.569521E-2,-4.4454294E-3,1.5116909E-2,1.686958E-2,1.0081313E-3,9.586257E-3,-1.694985E-3,-1.6574016E-2,-3.5640912E-3,4.927976E-4,1.4033117E-2,1.3634828E-2,-7.5957817E-3,-5.4076556E-3,-1.7095271E-2,7.0005674E-3,-1.4884763E-2,-2.3914413E-3,6.448972E-3,1.3662982E-2,4.189726E-3,7.5348658E-3,-7.043298E-3,-1.637906E-2,5.420078E-3,1.4850749E-2,6.817608E-3],"split_indices":[18,35,25,10,26,18,0,5,24,16,18,25,19,19,31,27,18,16,0,0,0,5,10,10,10,14,0,11,17,0,10,26,11,0,14,26,0,19,21,5,20,0,20,19,3,7,17,11,0,17,0,0,0,17,0,21,0,17,21,0,11,0,26,19,0,0,0,3,11,3,35,0,26,31,31,16,0,0,0,0,0,0,0,0,0,0,0,0,0,0,0,0,0,0,0,0,0,0,0,0,0,0,0,0,0,0,0,0,0,0,0,0,0,0,0,0,0],"split_type":[0,0,0,0,0,0,0,0,0,0,0,0,0,0,0,0,0,0,0,0,0,0,0,0,0,0,0,0,0,0,0,0,0,0,0,0,0,0,0,0,0,0,0,0,0,0,0,0,0,0,0,0,0,0,0,0,0,0,0,0,0,0,0,0,0,0,0,0,0,0,0,0,0,0,0,0,0,0,0,0,0,0,0,0,0,0,0,0,0,0,0,0,0,0,0,0,0,0,0,0,0,0,0,0,0,0,0,0,0,0,0,0,0,0,0,0,0],"sum_hessian":[1.1060809E3,3.0140698E2,8.04674E2,2.3086496E2,7.054204E1,7.941816E2,1.04924135E1,1.0096144E2,1.299035E2,5.2529926E1,1.8012115E1,6.68574E2,1.2560761E2,3.670605E1,6.425539E1,3.0436691E1,9.946682E1,2.0440485E1,3.208944E1,3.2987382E0,1.4713378E1,7.587593E1,5.9269806E2,3.7251358E1,8.8356255E1,2.9760006E1,6.9460464E0,1.6689905E1,4.7565483E1,1.7490929E1,1.2945763E1,3.1864292E1,6.760252E1,3.273933E0,1.7166553E1,2.671642E1,5.373022E0,6.605385E1,9.822082E0,7.162249E1,5.2107556E2,5.57221E0,3.167915E1,5.708226E1,3.127399E1,7.671041E0,2.2088964E1,7.4456444E0,9.244262E0,1.983757E1,2.7727913E1,3.3233514E0,1.4167578E1,7.7985E0,5.1472626E0,2.7089901E1,4.7743897E0,5.5609425E1,1.1993102E1,3.2981272E0,1.3868425E1,7.3965507E0,1.9319868E1,6.2280266E1,3.7735853E0,4.998412E0,4.8236694E0,1.20194435E1,5.9603046E1,1.1284755E2,4.08228E2,2.3984812E1,7.694337E0,3.9210514E1,1.787175E1,2.7976433E1,3.2975583E0,3.8722563E0,3.798785E0,1.6267303E1,5.8216615E0,3.5730987E0,3.8725457E0,1.6789188E1,3.0483813E0,3.0489326E0,4.7495675E0,1.0146966E1,1.6942936E1,2.1268354E1,3.4341072E1,6.3225894E0,5.670513E0,9.5447645E0,4.323661E0,3.847821E0,3.5487297E0,1.5271139E1,4.048728E0,1.4994761E1,4.7285503E1,8.745824E0,3.2736192E0,2.85634E1,3.1039644E1,1.0959841E2,3.2491384E0,3.2931946E2,7.890855E1,4.1219416E0,3.5723948E0,2.6588406E1,1.2622107E1,1.3273537E1,4.598213E0,1.8009995E1,9.966437E0],"tree_param":{"num_deleted":"0","num_feature":"38","num_nodes":"117","size_leaf_vector":"1"}},{"base_weights":[1.31669E-2,-3.528197E-1,1.4639318E-1,-5.344983E-1,2.1780412E-1,8.3324414E-1,6.93125E-2,-9.96311E-1,-1.4904656E-1,-6.9114643E-1,7.8138834E-1,-6.426182E-1,9.9376875E-1,-8.6612785E-1,1.7175479E-1,-1.1607752E-1,-1.5226961E0,8.6234957E-1,-4.359639E-1,3.439702E-1,-1.4629786E0,9.9561816E-1,-1.4824923E-2,-1.4994017E-2,2.2406098E-3,5.3135075E-2,1.1997821E0,-1.5343758E-1,-1.2513665E0,2.5131512E-1,-7.026865E-1,-5.624231E-1,1.1949229E0,-6.624611E-1,-1.769797E0,1.3021878E0,-1.219346E-1,3.0284524E-1,-8.0648816E-1,-9.397987E-3,1.0574371E0,4.6366335E-5,-1.808718E-2,-1.6949782E-1,1.3071924E0,-1.2043095E-2,9.752845E-1,1.3619666E0,-5.553561E-3,9.108856E-1,-6.820464E-1,-2.3611296E-4,-1.3897117E0,1.2028174E-1,1.072325E0,-1.3387337E-1,-1.4724358E0,6.811355E-2,-1.753926E-2,1.5144578E-2,4.4575157E-3,8.698867E-1,-1.7291483E-2,-1.8249805E0,-6.7767627E-3,1.1214139E-4,1.5384148E0,-1.0423383E-2,9.313373E-3,6.385455E-1,-1.5801093E-2,-1.0085393E0,4.837816E-1,1.5613979E-2,3.0831657E-3,6.7557897E-3,-1.0132428E-2,1.7630264E-2,5.536171E-1,-6.933829E-4,1.615498E-2,1.5739363E0,6.4269733E-1,-5.343413E-4,1.4762501E-2,5.9133047E-1,-1.5045395E0,-1.7549571E0,-7.68201E-1,7.975522E-1,9.869707E-3,1.1626619E0,-1.9473041E-3,6.6914254E-1,-8.3216256E-1,-1.7848646E-3,-1.8397735E-2,9.923786E-3,-1.0922981E-2,9.730664E-5,1.4829745E-2,-7.293163E-3,-1.889847E-2,7.778992E-3,1.7234882E-2,1.2199606E-2,-1.644437E-3,-1.5701861E-3,-1.3669743E-2,-4.35441E-3,1.3599125E-2,-7.6881326E-3,1.0373977E-2,4.967996E-3,1.7305534E-2,1.1406874E-2,-7.963386E-3,-6.9596902E-3,1.55354105E-2,-1.7106047E-2,-6.7048594E-3,-6.7994986E-3,-1.8648075E-2,-1.8566671E-3,-1.6449312E-2,1.6638469E-3,1.2221814E-2,1.7158878E-3,-6.1087906E-3,8.7074805E-3,1.5431824E-2,-5.3917295E-3,1.2531631E-2,-1.3018984E-2,1.7184576E-3],"categories":[],"categories_nodes":[],"categories_segments":[],"categories_sizes":[],"default_left":[0,0,0,0,0,0,0,0,0,0,0,0,0,0,0,0,0,0,0,0,0,0,0,0,0,0,0,0,0,0,0,0,0,0,0,0,0,0,0,0,0,0,0,0,0,0,0,0,0,0,0,0,0,0,0,0,0,0,0,0,0,0,0,0,0,0,0,0,0,0,0,0,0,0,0,0,0,0,0,0,0,0,0,0,0,0,0,0,0,0,0,0,0,0,0,0,0,0,0,0,0,0,0,0,0,0,0,0,0,0,0,0,0,0,0,0,0,0,0,0,0,0,0,0,0,0,0,0,0,0,0,0,0,0,0],"id":5,"left_children":[1,3,5,7,9,11,13,15,17,19,21,23,25,27,29,31,33,35,37,39,41,43,-1,-1,-1,45,47,49,51,53,55,57,59,61,63,65,67,69,71,-1,73,-1,-1,75,77,-1,79,81,-1,83,85,-1,87,89,91,93,95,97,-1,-1,-1,99,-1,101,-1,-1,103,-1,-1,105,-1,107,109,-1,-1,-1,-1,-1,111,-1,-1,113,115,-1,-1,117,119,121,123,125,127,129,-1,131,133,-1,-1,-1,-1,-1,-1,-1,-1,-1,-1,-1,-1,-1,-1,-1,-1,-1,-1,-1,-1,-1,-1,-1,-1,-1,-1,-1,-1,-1,-1,-1,-1,-1,-1,-1,-1,-1,-1,-1,-1],"loss_changes":[5.4036503E1,3.0801384E1,4.2890297E1,3.973458E1,3.7424118E1,2.0053589E1,7.02371E1,4.6887436E1,3.6249275E1,2.299577E1,2.323759E1,6.8277197E0,1.4195702E1,1.9526508E1,4.6102848E1,2.3604145E1,1.2110199E1,1.2230158E1,2.68912E1,1.2656111E1,8.456104E0,1.5481075E1,0E0,0E0,0E0,1.7930769E1,1.8132973E1,1.5569613E1,7.761627E0,6.500096E1,2.3840004E1,2.286669E1,1.5812473E0,2.7559402E1,1.4506073E0,5.69495E0,1.0067088E1,2.1830095E1,1.7504051E1,0E0,2.6148577E0,0E0,0E0,7.578005E0,1.016264E1,0E0,6.249961E0,7.2990646E0,0E0,5.2347093E0,2.026717E1,0E0,7.9107895E0,3.9115936E1,9.851715E0,1.905261E1,1.0549461E1,2.3125984E1,0E0,0E0,0E0,3.6055307E0,0E0,1.6092987E0,0E0,0E0,6.8795395E-1,0E0,0E0,1.3770182E1,0E0,1.6923592E1,8.270151E0,0E0,0E0,0E0,0E0,0E0,9.791639E0,0E0,0E0,6.074875E0,1.1359593E1,0E0,0E0,1.0948112E1,5.945091E-1,1.4900665E0,8.392394E0,1.9316383E1,4.542813E1,7.0705338E0,0E0,1.1908171E1,8.891701E0,0E0,0E0,0E0,0E0,0E0,0E0,0E0,0E0,0E0,0E0,0E0,0E0,0E0,0E0,0E0,0E0,0E0,0E0,0E0,0E0,0E0,0E0,0E0,0E0,0E0,0E0,0E0,0E0,0E0,0E0,0E0,0E0,0E0,0E0,0E0,0E0,0E0,0E0,0E0,0E0],"parents":[2147483647,0,0,1,1,2,2,3,3,4,4,5,5,6,6,7,7,8,8,9,9,10,10,11,11,12,12,13,13,14,14,15,15,16,16,17,17,18,18,19,19,20,20,21,21,25,25,26,26,27,27,28,28,29,29,30,30,31,31,32,32,33,33,34,34,35,35,36,36,37,37,38,38,40,40,43,43,44,44,46,46,47,47,49,49,50,50,52,52,53,53,54,54,55,55,56,56,57,57,61,61,63,63,66,66,69,69,71,71,72,72,78,78,81,81,82,82,85,85,86,86,87,87,88,88,89,89,90,90,91,91,93,93,94,94],"right_children":[2,4,6,8,10,12,14,16,18,20,22,24,26,28,30,32,34,36,38,40,42,44,-1,-1,-1,46,48,50,52,54,56,58,60,62,64,66,68,70,72,-1,74,-1,-1,76,78,-1,80,82,-1,84,86,-1,88,90,92,94,96,98,-1,-1,-1,100,-1,102,-1,-1,104,-1,-1,106,-1,108,110,-1,-1,-1,-1,-1,112,-1,-1,114,116,-1,-1,118,120,122,124,126,128,130,-1,132,134,-1,-1,-1,-1,-1,-1,-1,-1,-1,-1,-1,-1,-1,-1,-1,-1,-1,-1,-1,-1,-1,-1,-1,-1,-1,-1,-1,-1,-1,-1,-1,-1,-1,-1,-1,-1,-1,-1,-1,-1],"split_conditions":[-6.1567575E-1,7.8814787E-1,-1.1548113E0,1.4777963E-1,2.3459671E-1,-7.2502804E-1,-3.9699212E-1,-1.0475928E0,4.1203955E-1,-5.224375E-1,1.249041E0,4.27147E-1,-5.618274E-1,-6.7607844E-1,1.6704774E0,-1.141645E0,-9.1900456E-1,-5.2099633E-1,-1.4155905E0,-5.606711E-3,-1.2247027E0,-6.243553E-2,-1.4824923E-2,-1.4994017E-2,2.2406098E-3,-1.1609106E0,4.4621414E-1,-4.3216398E-1,-1.1829209E0,1.3974506E0,-3.955383E-1,-1.1591488E0,-3.0732468E-1,-7.6471096E-1,1.3997488E-1,-1.3335434E0,3.4185782E-1,1.9058182E0,7.094565E-2,-9.397987E-3,2.4523507E-1,4.6366335E-5,-1.808718E-2,-7.3787935E-2,-1.0144838E0,-1.2043095E-2,-1.3996872E-1,1.1712674E0,-5.553561E-3,-1.0848752E0,-4.4990516E-1,-2.3611296E-4,1.7357856E-1,-1.1513859E-1,1.6772351E0,-3.7750044E-1,1.6275607E0,-7.9226124E-1,-1.753926E-2,1.5144578E-2,4.4575157E-3,-1.0243001E0,-1.7291483E-2,-1.4975597E0,-6.7767627E-3,1.1214139E-4,9.062604E-2,-1.0423383E-2,9.313373E-3,-1.0002327E0,-1.5801093E-2,-8.6097765E-1,2.7895886E-1,1.5613979E-2,3.0831657E-3,6.7557897E-3,-1.0132428E-2,1.7630264E-2,-4.5734885E-1,-6.933829E-4,1.615498E-2,-1.337695E0,-1.5393895E-1,-5.343413E-4,1.4762501E-2,-1.1759533E0,4.2723095E-1,-1.3477113E0,5.3163314E-1,-3.6609843E-1,-5.6238238E-2,1.5121955E0,-1.9473041E-3,-1.2752738E0,1.73619E0,-1.7848646E-3,-1.8397735E-2,9.923786E-3,-1.0922981E-2,9.730664E-5,1.4829745E-2,-7.293163E-3,-1.889847E-2,7.778992E-3,1.7234882E-2,1.2199606E-2,-1.644437E-3,-1.5701861E-3,-1.3669743E-2,-4.35441E-3,1.3599125E-2,-7.6881326E-3,1.0373977E-2,4.967996E-3,1.7305534E-2,1.1406874E-2,-7.963386E-3,-6.9596902E-3,1.55354105E-2,-1.7106047E-2,-6.7048594E-3,-6.7994986E-3,-1.8648075E-2,-1.8566671E-3,-1.6449312E-2,1.6638469E-3,1.2221814E-2,1.7158878E-3,-6.1087906E-3,8.7074805E-3,1.5431824E-2,-5.3917295E-3,1.2531631E-2,-1.3018984E-2,1.7184576E-3],"split_indices":[18,35,25,10,26,35,10,2,9,26,19,37,19,1,30,8,31,11,18,19,18,19,0,0,0,8,19,11,19,10,17,4,1,11,10,16,10,26,11,0,19,0,0,31,12,0,21,27,0,11,35,0,26,6,6,31,10,16,0,0,0,31,0,12,0,0,25,0,0,15,0,17,21,0,0,0,0,0,10,0,0,2,19,0,0,4,37,27,26,6,36,8,0,35,6,0,0,0,0,0,0,0,0,0,0,0,0,0,0,0,0,0,0,0,0,0,0,0,0,0,0,0,0,0,0,0,0,0,0,0,0,0,0,0,0],"split_type":[0,0,0,0,0,0,0,0,0,0,0,0,0,0,0,0,0,0,0,0,0,0,0,0,0,0,0,0,0,0,0,0,0,0,0,0,0,0,0,0,0,0,0,0,0,0,0,0,0,0,0,0,0,0,0,0,0,0,0,0,0,0,0,0,0,0,0,0,0,0,0,0,0,0,0,0,0,0,0,0,0,0,0,0,0,0,0,0,0,0,0,0,0,0,0,0,0,0,0,0,0,0,0,0,0,0,0,0,0,0,0,0,0,0,0,0,0,0,0,0,0,0,0,0,0,0,0,0,0,0,0,0,0,0,0],"sum_hessian":[1.1065997E3,2.9468106E2,8.119187E2,2.2369748E2,7.0983574E1,8.080185E1,7.311168E2,1.009292E2,1.2276829E2,2.7013054E1,4.3970524E1,7.5706997E0,7.323115E1,7.1331375E1,6.5978546E2,3.829758E1,6.263162E1,2.6610615E1,9.615767E1,1.1719981E1,1.5293073E1,4.0721462E1,3.2490613E0,3.4979844E0,4.0727153E0,1.3470354E1,5.9760796E1,2.561029E1,4.5721085E1,6.055197E2,5.4265755E1,2.9053312E1,9.244268E0,1.4887884E1,4.7743732E1,1.8238953E1,8.371661E0,3.2088127E1,6.406954E1,4.023304E0,7.696677E0,3.048781E0,1.2244292E1,8.620521E0,3.210094E1,5.5237436E0,7.9466105E0,5.4962906E1,4.797889E0,8.195923E0,1.7414366E1,4.821938E0,4.0899147E1,5.2327344E2,8.2246254E1,3.1955664E1,2.2310091E1,1.956077E1,9.492542E0,5.670646E0,3.5736222E0,6.1474805E0,8.740404E0,4.4721413E1,3.022323E0,3.0486984E0,1.5190255E1,4.5238285E0,3.8478327E0,2.7838892E1,4.249234E0,5.5650715E1,8.418831E0,3.8732212E0,3.823456E0,4.347224E0,4.2732964E0,1.9084545E1,1.3016396E1,3.2990758E0,4.647535E0,4.1427025E1,1.3535879E1,3.2984684E0,4.8974547E0,6.896591E0,1.0517776E1,2.4510427E1,1.638872E1,7.234964E1,4.5092383E2,7.6923195E1,5.323058E0,1.4816071E1,1.7139593E1,5.3218756E0,1.6988216E1,1.1016854E1,8.543917E0,3.0488935E0,3.0985868E0,3.2701485E0,4.1451263E1,4.0972195E0,1.1093036E1,1.5918297E1,1.1920595E1,1.6994518E1,3.8656197E1,4.298144E0,4.120687E0,3.2731762E0,9.743218E0,5.869565E0,3.555746E1,1.0261589E1,3.2742903E0,3.023865E0,3.8727264E0,7.49514E0,3.022635E0,3.0233848E0,2.1487043E1,1.0642952E1,5.745767E0,2.975268E1,4.2596962E1,3.584295E2,9.249431E1,4.5539207E1,3.1383987E1,4.7969446E0,1.0019126E1,1.1542305E1,5.5972886E0],"tree_param":{"num_deleted":"0","num_feature":"38","num_nodes":"135","size_leaf_vector":"1"}},{"base_weights":[1.749777E-2,1.0816743E0,-2.039517E-2,1.4428358E0,-3.1628957E-1,-3.2683635E-1,1.6185656E-1,7.1956724E-4,1.6621583E0,-1.0403236E-2,7.1890717E-3,-4.4800863E-1,6.882451E-1,2.014302E-1,-1.7754303E-2,1.7515857E-2,7.2086486E-3,-3.697881E-1,-1.41356E0,9.993344E-1,-1.1834105E-2,5.090924E-1,-1.5380214E-2,-4.4439292E-1,1.0652909E0,4.6016634E-3,-1.862225E-2,2.2908175E-2,1.467245E0,1.041086E0,3.6175117E-1,-2.3366956E-1,8.3052695E-1,7.077503E-2,-5.9587693E-1,1.485888E0,-2.6092916E-3,1.5442052E-2,-1.6440405E-2,1.721344E-2,6.465175E-1,1.1831311E0,-5.0687618E-3,-7.96989E-1,4.7814685E-1,8.631878E-1,-3.223587E-1,-4.188235E-1,9.794729E-1,-5.674954E-3,9.771775E-3,-8.6598825E-3,-1.7168513E-3,5.670422E-3,1.7365105E-2,-1.9482699E-3,1.4473214E-2,1.3733938E-2,1.4323507E-4,9.41764E-3,-1.2781677E-2,6.487093E-3,-8.7394286E-4,2.639397E-3,1.3441114E-2,-9.885919E-3,-1.4098787E-3,1.0866397E-2,-1.6193505E-2,1.2575641E-2,3.7089593E-3],"categories":[],"categories_nodes":[],"categories_segments":[],"categories_sizes":[],"default_left":[0,0,0,0,0,0,0,0,0,0,0,0,0,0,0,0,0,0,0,0,0,0,0,0,0,0,0,0,0,0,0,0,0,0,0,0,0,0,0,0,0,0,0,0,0,0,0,0,0,0,0,0,0,0,0,0,0,0,0,0,0,0,0,0,0,0,0,0,0,0,0],"id":6,"left_children":[1,3,5,7,9,11,13,-1,15,-1,-1,17,19,21,-1,-1,-1,23,25,27,-1,29,31,33,35,-1,-1,37,39,41,43,45,47,49,51,53,-1,-1,-1,-1,55,57,-1,59,61,63,65,67,69,-1,-1,-1,-1,-1,-1,-1,-1,-1,-1,-1,-1,-1,-1,-1,-1,-1,-1,-1,-1,-1,-1],"loss_changes":[4.4735485E1,1.9827682E1,5.9775597E1,8.8921585E0,7.2218795E0,4.93891E1,5.1629715E1,0E0,6.979065E-1,0E0,0E0,2.628785E1,2.6131517E1,4.3971992E1,0E0,0E0,0E0,3.5958275E1,2.3131706E1,1.6885101E1,0E0,2.0832977E1,7.159049E1,2.478497E1,9.789593E0,0E0,0E0,3.5970985E1,3.8993874E0,1.3507362E1,2.934377E1,3.0232262E1,1.526059E1,4.2617275E1,2.7790253E1,1.7410469E0,0E0,0E0,0E0,0E0,5.5580006E0,1.1815956E1,0E0,1.7903421E1,1.902459E1,6.1889534E0,3.433185E1,1.8255363E1,1.1455322E1,0E0,0E0,0E0,0E0,0E0,0E0,0E0,0E0,0E0,0E0,0E0,0E0,0E0,0E0,0E0,0E0,0E0,0E0,0E0,0E0,0E0,0E0],"parents":[2147483647,0,0,1,1,2,2,3,3,4,4,5,5,6,6,8,8,11,11,12,12,13,13,17,17,18,18,19,19,21,21,22,22,23,23,24,24,27,27,28,28,29,29,30,30,31,31,32,32,33,33,34,34,35,35,40,40,41,41,43,43,44,44,45,45,46,46,47,47,48,48],"right_children":[2,4,6,8,10,12,14,-1,16,-1,-1,18,20,22,-1,-1,-1,24,26,28,-1,30,32,34,36,-1,-1,38,40,42,44,46,48,50,52,54,-1,-1,-1,-1,56,58,-1,60,62,64,66,68,70,-1,-1,-1,-1,-1,-1,-1,-1,-1,-1,-1,-1,-1,-1,-1,-1,-1,-1,-1,-1,-1,-1],"split_conditions":[-1.2937782E0,2.8251022E-1,1.4452764E-1,-2.3328854E-1,-1.236569E0,1.475955E0,1.7676051E0,7.1956724E-4,1.1025199E0,-1.0403236E-2,7.1890717E-3,1.557898E-1,-3.4807873E-1,-3.1272694E-1,-1.7754303E-2,1.7515857E-2,7.2086486E-3,1.4821852E0,-1.0489758E0,-3.7930134E-1,-1.1834105E-2,2.8200975E-1,1.398291E0,-1.1479679E0,5.7964015E-1,4.6016634E-3,-1.862225E-2,-9.0782636E-1,1.2810713E0,2.857458E0,4.589291E-1,1.245989E-1,1.14159666E-1,-1.1841015E0,-1.3917512E-1,-2.7319735E-1,-2.6092916E-3,1.5442052E-2,-1.6440405E-2,1.721344E-2,-4.0677354E-1,5.55995E-1,-5.0687618E-3,1.948683E-1,4.6243146E-1,-5.4399836E-1,3.5369503E-1,1.529872E0,1.9311167E0,-5.674954E-3,9.771775E-3,-8.6598825E-3,-1.7168513E-3,5.670422E-3,1.7365105E-2,-1.9482699E-3,1.4473214E-2,1.3733938E-2,1.4323507E-4,9.41764E-3,-1.2781677E-2,6.487093E-3,-8.7394286E-4,2.639397E-3,1.3441114E-2,-9.885919E-3,-1.4098787E-3,1.0866397E-2,-1.6193505E-2,1.2575641E-2,3.7089593E-3],"split_indices":[6,19,10,16,3,35,25,0,17,0,0,25,30,17,0,0,0,18,20,10,0,2,16,25,19,0,0,16,13,32,10,9,6,10,10,17,0,0,0,0,2,22,0,10,19,26,10,16,16,0,0,0,0,0,0,0,0,0,0,0,0,0,0,0,0,0,0,0,0,0,0],"split_type":[0,0,0,0,0,0,0,0,0,0,0,0,0,0,0,0,0,0,0,0,0,0,0,0,0,0,0,0,0,0,0,0,0,0,0,0,0,0,0,0,0,0,0,0,0,0,0,0,0,0,0,0,0,0,0,0,0,0,0,0,0,0,0,0,0,0,0,0,0,0,0],"sum_hessian":[1.1052007E3,3.714423E1,1.0680564E3,2.9549582E1,7.5946484E0,3.9822668E2,6.698297E2,4.3215675E0,2.5228014E1,4.522902E0,3.0717463E0,3.563461E2,4.188058E1,6.573495E2,1.2480266E1,2.2156017E1,3.0719974E0,3.3101657E2,2.5329517E1,3.6357132E1,5.5234475E0,2.713734E2,3.8597604E2,3.15381E2,1.5635554E1,4.84542E0,2.0484097E1,1.2187395E1,2.4169737E1,5.739549E1,2.1397794E2,3.0747342E2,7.8502625E1,7.1635414E1,2.437456E2,1.1836681E1,3.7988732E0,6.441946E0,5.7454495E0,1.7524826E1,6.6449094E0,5.2846443E1,4.5490456E0,1.8919952E1,1.9505798E2,2.2264036E1,2.8520938E2,8.097546E0,7.040508E1,4.218979E1,2.9445623E1,1.481386E2,9.560702E1,3.3213427E0,8.515339E0,3.5485504E0,3.096359E0,4.5224102E1,7.6223426E0,3.848449E0,1.5071505E1,1.49884E2,4.517399E1,1.0694748E1,1.1569288E1,5.9958942E1,2.2525044E2,3.5976512E0,4.499894E0,4.7478775E1,2.2926308E1],"tree_param":{"num_deleted":"0","num_feature":"38","num_nodes":"71","size_leaf_vector":"1"}},{"base_weights":[2.0712273E-2,9.743993E-1,-3.154808E-2,-1.5017864E-2,1.1624931E0,-4.6454626E-1,6.805195E-2,1.6704409E0,5.3561777E-1,-1.1623119E0,-1.9632788E-1,-1.5257905E0,9.1562524E-2,1.7835652E-2,7.5684404E-3,-1.7032823E-1,1.1521566E0,7.098026E-1,-1.597284E0,1.0218801E0,-3.892551E-1,-6.6012014E-3,-1.7213205E-2,7.59455E-1,2.2764223E-2,-9.9708444E-1,1.0620747E-2,1.9122484E-3,1.5142983E-2,1.5052751E-2,-4.070228E-3,-1.7149839E0,-3.7692217E-3,1.39620025E-2,3.587529E-1,5.4835445E-1,-6.171196E-1,9.145125E-1,-3.183773E-1,-3.7943378E-1,2.2092961E-1,-0E0,-1.5767947E-2,-6.5933457E-3,-1.7798674E0,-3.5513102E-3,1.0864589E-2,1.0382543E0,-1.44186E-1,-7.842336E-2,-1.0817443E0,1.0473243E0,-9.806042E-3,-1.599454E-2,1.0865665E-2,7.1164765E-3,-8.2669973E-1,6.434563E-1,7.353311E-2,-1.8532755E-2,-6.847037E-3,1.4030756E-2,1.03503E-3,-9.01424E-3,3.521543E-3,-4.3256935E-3,1.0463961E-2,1.4244051E-3,-1.2715686E-2,1.1574386E-2,-7.7816653E-3,-3.911045E-3,1.2795256E-2,-1.3069216E-2,-4.6090097E-3,-1.5497016E-2,7.1953163E-3,-7.420231E-3,1.7896547E-3],"categories":[],"categories_nodes":[],"categories_segments":[],"categories_sizes":[],"default_left":[0,0,0,0,0,0,0,0,0,0,0,0,0,0,0,0,0,0,0,0,0,0,0,0,0,0,0,0,0,0,0,0,0,0,0,0,0,0,0,0,0,0,0,0,0,0,0,0,0,0,0,0,0,0,0,0,0,0,0,0,0,0,0,0,0,0,0,0,0,0,0,0,0,0,0,0,0,0,0],"id":7,"left_children":[1,3,5,-1,7,9,11,13,15,17,19,21,23,-1,-1,25,27,29,31,33,35,-1,-1,37,39,41,-1,-1,-1,-1,-1,43,-1,-1,45,47,49,51,53,55,57,-1,-1,-1,59,-1,-1,61,63,65,67,69,-1,-1,-1,71,73,75,77,-1,-1,-1,-1,-1,-1,-1,-1,-1,-1,-1,-1,-1,-1,-1,-1,-1,-1,-1,-1],"loss_changes":[5.57086E1,2.875782E1,4.5706596E1,0E0,1.6261055E1,3.673011E1,3.2258644E1,1.4536514E0,1.160464E1,4.5787315E1,3.428985E1,7.431164E-1,3.8937008E1,0E0,0E0,1.4206617E1,4.438156E0,1.04656315E1,5.573509E0,4.2774487E0,2.7161898E1,0E0,0E0,1.3580944E1,6.154159E1,4.796851E0,0E0,0E0,0E0,0E0,0E0,1.3542404E0,0E0,0E0,4.9489655E0,8.715559E0,2.521222E1,1.853801E1,2.0897694E1,4.413824E1,3.2110863E1,0E0,0E0,0E0,1.4876175E0,0E0,0E0,4.7645826E0,4.561064E0,1.9590479E1,1.2920876E1,1.4109825E1,0E0,0E0,0E0,7.028164E1,1.9992462E1,2.3311924E1,3.3178715E1,0E0,0E0,0E0,0E0,0E0,0E0,0E0,0E0,0E0,0E0,0E0,0E0,0E0,0E0,0E0,0E0,0E0,0E0,0E0,0E0],"parents":[2147483647,0,0,1,1,2,2,4,4,5,5,6,6,7,7,8,8,9,9,10,10,11,11,12,12,15,15,16,16,17,17,18,18,19,19,20,20,23,23,24,24,25,25,31,31,34,34,35,35,36,36,37,37,38,38,39,39,40,40,44,44,47,47,48,48,49,49,50,50,51,51,55,55,56,56,57,57,58,58],"right_children":[2,4,6,-1,8,10,12,14,16,18,20,22,24,-1,-1,26,28,30,32,34,36,-1,-1,38,40,42,-1,-1,-1,-1,-1,44,-1,-1,46,48,50,52,54,56,58,-1,-1,-1,60,-1,-1,62,64,66,68,70,-1,-1,-1,72,74,76,78,-1,-1,-1,-1,-1,-1,-1,-1,-1,-1,-1,-1,-1,-1,-1,-1,-1,-1,-1,-1],"split_conditions":[-1.4128352E0,-8.1159785E-2,-8.625895E-1,-1.5017864E-2,-1.7871803E-1,4.865927E-2,-1.7801299E0,1.1941886E0,1.261249E0,-1.0475928E0,1.22871615E-1,-5.404983E-1,-1.1824398E0,1.7835652E-2,7.5684404E-3,-7.427484E-1,1.4067787E0,-8.8292485E-1,5.0669044E-2,1.1474909E0,-1.1029338E0,-6.6012014E-3,-1.7213205E-2,-1.1377883E0,1.4777963E-1,-6.020802E-1,1.0620747E-2,1.9122484E-3,1.5142983E-2,1.5052751E-2,-4.070228E-3,-1.2326568E0,-3.7692217E-3,1.39620025E-2,-2.2901207E-2,-7.8807163E-1,-5.100742E-1,1.1845453E0,-1.1452185E0,-3.465521E-1,3.7742284E-1,-0E0,-1.5767947E-2,-6.5933457E-3,8.809894E-2,-3.5513102E-3,1.0864589E-2,8.605091E-1,-1.1113462E-1,1.4035016E0,1.5440238E-1,-1.020201E0,-9.806042E-3,-1.599454E-2,1.0865665E-2,-3.5848865E-1,-4.011076E-2,-1.6766295E0,4.589291E-1,-1.8532755E-2,-6.847037E-3,1.4030756E-2,1.03503E-3,-9.01424E-3,3.521543E-3,-4.3256935E-3,1.0463961E-2,1.4244051E-3,-1.2715686E-2,1.1574386E-2,-7.7816653E-3,-3.911045E-3,1.2795256E-2,-1.3069216E-2,-4.6090097E-3,-1.5497016E-2,7.1953163E-3,-7.420231E-3,1.7896547E-3],"split_indices":[35,10,35,0,31,10,22,15,14,2,29,27,7,0,0,21,2,22,7,15,14,0,0,25,10,1,0,0,0,0,0,31,0,0,1,20,31,20,4,3,7,0,0,0,3,0,0,21,1,22,6,5,0,0,0,10,22,21,10,0,0,0,0,0,0,0,0,0,0,0,0,0,0,0,0,0,0,0,0],"split_type":[0,0,0,0,0,0,0,0,0,0,0,0,0,0,0,0,0,0,0,0,0,0,0,0,0,0,0,0,0,0,0,0,0,0,0,0,0,0,0,0,0,0,0,0,0,0,0,0,0,0,0,0,0,0,0,0,0,0,0,0,0,0,0,0,0,0,0,0,0,0,0,0,0,0,0,0,0,0,0],"sum_hessian":[1.1142396E3,5.7069004E1,1.0571707E3,3.4983683E0,5.3570637E1,1.9720172E2,8.5996893E2,2.8584671E1,2.4985966E1,5.3726593E1,1.4347513E2,1.1510219E1,8.4845874E2,2.4490482E1,4.0941877E0,1.1910177E1,1.30757885E1,9.967E0,4.3759594E1,1.8957293E1,1.2451783E2,3.0213373E0,8.488882E0,7.8162865E1,7.7029584E2,7.2910614E0,4.619116E0,4.0728316E0,9.002957E0,5.6701155E0,4.296885E0,3.9465977E1,4.2936163E0,1.1314333E1,7.642959E0,2.3983976E1,1.0053385E2,6.85461E1,9.616767E0,2.5378748E2,5.1650836E2,3.0464275E0,4.244634E0,3.0208054E0,3.644517E1,4.0471997E0,3.5957594E0,1.3839313E1,1.0144665E1,4.7196823E1,5.333703E1,6.452429E1,4.0218077E0,4.994939E0,4.6218286E0,1.3654166E2,1.1724582E2,1.3253622E2,3.8397217E2,3.342141E1,3.0237615E0,9.516968E0,4.322345E0,3.7732966E0,6.371368E0,3.6430977E1,1.0765847E1,7.123043E0,4.6213985E1,6.1250378E1,3.2739108E0,1.0446248E2,3.207918E1,4.946364E1,6.778218E1,3.749774E0,1.2878645E2,4.3156345E1,3.4081583E2],"tree_param":{"num_deleted":"0","num_feature":"38","num_nodes":"79","size_leaf_vector":"1"}},{"base_weights":[3.618504E-3,8.519365E-1,-4.378342E-2,-7.344482E-3,1.0312601E0,2.0310499E-1,-2.2116196E-1,1.1622285E0,-7.3616276E-3,5.811947E-1,-3.988064E-2,4.3386826E-1,-3.513896E-1,3.2518068E-1,1.3016483E0,6.6024256E-1,-4.2587036E-1,4.1125614E-2,-1.5893872E0,8.229521E-1,-5.899748E-1,-2.0681226E-1,-8.6022776E-1,1.2405316E-2,-4.684308E-3,1.4151998E0,1.5671975E-3,7.07493E-1,-9.318393E-3,1.0930219E-2,-1.1234237E0,8.6675376E-1,-7.915807E-2,-6.865889E-3,-1.7744668E-2,-2.8415364E-1,1.0174302E0,9.910322E-1,-1.1406512E0,5.889725E-1,-3.550052E-1,-1.0158333E0,6.4103556E-1,1.5972949E0,6.9318223E-1,4.9633053E-1,1.1955357E0,-1.6631676E-2,-0E0,-7.809986E-3,1.0779595E0,-9.705054E-1,1.8005782E-1,1.1782221E-2,-1.3030228E-2,1.1958063E0,2.3460054E-1,1.3028191E-2,4.558293E-3,-1.7678738E-2,-2.6538125E-1,1.6420694E-2,2.1382827E-1,-1.2122731E0,-2.5263685E-1,-4.8483822E-1,-1.6595949E0,1.5499183E-2,-8.888781E-3,1.7072637E-2,5.2283285E-3,-7.894427E-3,1.589499E-2,8.432884E-3,-1.8163334E-3,1.2970427E-2,-8.325798E-4,3.4879192E-3,1.5281001E-2,4.951413E-3,-1.4472587E-2,3.1676185E-3,-5.715877E-3,-2.3212032E-3,1.366482E-2,-4.2142463E-3,1.3729973E-2,5.8212583E-3,-7.6213717E-3,-4.2748484E-3,1.5411088E-2,3.3267814E-4,-1.7436938E-2,5.7536177E-3,-3.5696467E-3,-1.592889E-3,-1.7496835E-2,-6.3120387E-3,-1.714493E-2],"categories":[],"categories_nodes":[],"categories_segments":[],"categories_sizes":[],"default_left":[0,0,0,0,0,0,0,0,0,0,0,0,0,0,0,0,0,0,0,0,0,0,0,0,0,0,0,0,0,0,0,0,0,0,0,0,0,0,0,0,0,0,0,0,0,0,0,0,0,0,0,0,0,0,0,0,0,0,0,0,0,0,0,0,0,0,0,0,0,0,0,0,0,0,0,0,0,0,0,0,0,0,0,0,0,0,0,0,0,0,0,0,0,0,0,0,0,0,0],"id":8,"left_children":[1,3,5,-1,7,9,11,13,-1,15,17,19,21,23,25,27,29,31,33,35,37,39,41,-1,-1,43,-1,45,-1,-1,47,49,51,-1,-1,53,55,57,59,61,63,65,67,69,71,73,75,-1,-1,-1,77,79,81,-1,-1,83,85,-1,-1,-1,87,-1,89,91,93,95,97,-1,-1,-1,-1,-1,-1,-1,-1,-1,-1,-1,-1,-1,-1,-1,-1,-1,-1,-1,-1,-1,-1,-1,-1,-1,-1,-1,-1,-1,-1,-1,-1],"loss_changes":[4.5031937E1,1.764769E1,4.640829E1,0E0,1.3333607E1,4.0766E1,5.275631E1,5.302368E0,0E0,1.41163025E1,3.4159817E1,4.1382683E1,3.761403E1,6.934393E0,5.187561E0,1.2775116E1,1.51563225E1,2.5756605E1,7.9462814E-1,1.647578E1,2.6190165E1,4.766945E1,2.7206833E1,0E0,0E0,3.7583694E0,0E0,1.5451805E1,0E0,0E0,5.928479E0,1.2349428E1,5.2446407E1,0E0,0E0,1.9258982E1,8.5065155E0,5.517788E-1,1.1321323E1,2.454207E1,2.939906E1,3.429357E1,1.7036667E1,2.4370956E0,1.4200922E1,2.6487429E1,6.286537E0,0E0,0E0,0E0,9.030224E0,3.6542946E1,1.8215042E1,0E0,0E0,1.3039253E1,1.054367E1,0E0,0E0,0E0,4.824675E0,0E0,4.1650246E1,2.400423E1,2.6551613E1,2.3457382E1,1.2912979E0,0E0,0E0,0E0,0E0,0E0,0E0,0E0,0E0,0E0,0E0,0E0,0E0,0E0,0E0,0E0,0E0,0E0,0E0,0E0,0E0,0E0,0E0,0E0,0E0,0E0,0E0,0E0,0E0,0E0,0E0,0E0,0E0],"parents":[2147483647,0,0,1,1,2,2,4,4,5,5,6,6,7,7,9,9,10,10,11,11,12,12,13,13,14,14,15,15,16,16,17,17,18,18,19,19,20,20,21,21,22,22,25,25,27,27,30,30,31,31,32,32,35,35,36,36,37,37,38,38,39,39,40,40,41,41,42,42,43,43,44,44,45,45,46,46,50,50,51,51,52,52,55,55,56,56,60,60,62,62,63,63,64,64,65,65,66,66],"right_children":[2,4,6,-1,8,10,12,14,-1,16,18,20,22,24,26,28,30,32,34,36,38,40,42,-1,-1,44,-1,46,-1,-1,48,50,52,-1,-1,54,56,58,60,62,64,66,68,70,72,74,76,-1,-1,-1,78,80,82,-1,-1,84,86,-1,-1,-1,88,-1,90,92,94,96,98,-1,-1,-1,-1,-1,-1,-1,-1,-1,-1,-1,-1,-1,-1,-1,-1,-1,-1,-1,-1,-1,-1,-1,-1,-1,-1,-1,-1,-1,-1,-1,-1],"split_conditions":[-1.4128352E0,-2.0574175E-1,-5.6238238E-2,-7.344482E-3,1.7216128E0,-3.19282E-1,-1.1742792E0,-5.283343E-1,-7.3616276E-3,2.857458E0,1.1657463E0,-1.141621E0,9.533016E-1,6.196899E-1,1.7186961E0,2.0459676E0,-1.9330399E-1,1.350597E-1,-5.6985134E-1,-1.2494935E0,-8.4424776E-1,-3.6559448E-1,9.344752E-1,1.2405316E-2,-4.684308E-3,2.1911246E-1,1.5671975E-3,6.96424E-1,-9.318393E-3,1.0930219E-2,4.2788017E-1,-1.291451E-1,-4.4990516E-1,-6.865889E-3,-1.7744668E-2,-1.2661828E0,1.0034063E-1,-1.164502E0,-1.1634809E0,-1.0644848E0,-5.8209664E-1,-1.0342573E0,7.888918E-2,1.66673E0,4.2789602E-1,5.742395E-1,-9.093876E-2,-1.6631676E-2,-0E0,-7.809986E-3,-8.625895E-1,-1.5800029E-1,1.572018E0,1.1782221E-2,-1.3030228E-2,-9.6694547E-1,1.975824E-1,1.3028191E-2,4.558293E-3,-1.7678738E-2,-4.4990516E-1,1.6420694E-2,1.6135164E0,-1.0970894E0,-1.521835E0,-2.3127446E-1,-1.4975597E0,1.5499183E-2,-8.888781E-3,1.7072637E-2,5.2283285E-3,-7.894427E-3,1.589499E-2,8.432884E-3,-1.8163334E-3,1.2970427E-2,-8.325798E-4,3.4879192E-3,1.5281001E-2,4.951413E-3,-1.4472587E-2,3.1676185E-3,-5.715877E-3,-2.3212032E-3,1.366482E-2,-4.2142463E-3,1.3729973E-2,5.8212583E-3,-7.6213717E-3,-4.2748484E-3,1.5411088E-2,3.3267814E-4,-1.7436938E-2,5.7536177E-3,-3.5696467E-3,-1.592889E-3,-1.7496835E-2,-6.3120387E-3,-1.714493E-2],"split_indices":[35,23,36,0,2,12,7,0,0,32,6,25,36,14,0,21,0,25,16,21,27,8,18,0,0,31,0,31,0,0,37,11,35,0,0,2,35,12,6,16,22,23,8,22,37,22,16,0,0,0,35,27,11,0,0,31,22,0,0,0,35,0,35,31,18,11,12,0,0,0,0,0,0,0,0,0,0,0,0,0,0,0,0,0,0,0,0,0,0,0,0,0,0,0,0,0,0,0,0],"split_type":[0,0,0,0,0,0,0,0,0,0,0,0,0,0,0,0,0,0,0,0,0,0,0,0,0,0,0,0,0,0,0,0,0,0,0,0,0,0,0,0,0,0,0,0,0,0,0,0,0,0,0,0,0,0,0,0,0,0,0,0,0,0,0,0,0,0,0,0,0,0,0,0,0,0,0,0,0,0,0,0,0,0,0,0,0,0,0,0,0,0,0,0,0,0,0,0,0,0,0],"sum_hessian":[1.1159285E3,5.82689E1,1.0576595E3,5.5467086E0,5.2722195E1,4.4189252E2,6.15767E2,4.945641E1,3.2657862E0,1.7249973E2,2.693928E2,1.0160515E2,5.1416187E2,7.6395845E0,4.1816826E1,1.6035649E2,1.2143227E1,2.568727E2,1.2520061E1,7.383865E1,2.7766495E1,4.0164465E2,1.12517235E2,3.3446856E0,4.294899E0,3.774951E1,4.067313E0,1.5633514E2,4.0213456E0,3.598139E0,8.545088E0,3.1980915E1,2.2489182E2,3.0232036E0,9.496858E0,1.0886989E1,6.2951664E1,6.919413E0,2.0847082E1,6.248042E1,3.391642E2,1.0230347E2,1.0213764E1,2.9067759E1,8.681752E0,1.1067223E2,4.566291E1,5.4983106E0,3.0467768E0,3.2732112E0,2.8707705E1,5.0135654E1,1.7475615E2,4.3659797E0,6.5210094E0,5.073571E1,1.2215954E1,3.347943E0,3.57147E0,1.1483731E1,9.363351E0,1.5454144E1,4.7026276E1,3.491925E1,3.04245E2,5.7107704E1,4.5195766E1,6.440133E0,3.773631E0,2.5750263E1,3.3174965E0,3.273924E0,5.407828E0,7.3143585E1,3.7528652E1,4.236409E1,3.298817E0,1.1719951E1,1.6987753E1,1.2244621E1,3.7891033E1,1.4846584E2,2.6290314E1,5.3158383E0,4.5419872E1,8.093734E0,4.1222196E0,3.3222146E0,6.0411363E0,3.21127E1,1.4913575E1,1.0667067E1,2.4252182E1,3.3432686E1,2.708123E2,4.6376255E1,1.0731449E1,3.0160618E0,4.2179707E1],"tree_param":{"num_deleted":"0","num_feature":"38","num_nodes":"99","size_leaf_vector":"1"}},{"base_weights":[-1.1621773E-2,-7.816698E-2,4.6970317E-1,3.199035E-1,-2.038538E-1,1.3377205E0,1.2661481E-1,-7.600242E-1,4.2083406E-1,-2.469453E-1,9.2599255E-1,-2.2372957E-3,1.6228623E0,3.0680072E-1,-1.2085383E0,-1.1977409E0,5.553451E-3,5.0006944E-1,-1.1607918E0,8.042485E-1,-2.8965357E-1,1.4298049E0,-0E0,7.278396E-3,1.6901314E-2,-2.0430972E-1,1.1667594E0,-1.674497E-2,4.230867E-4,-1.5040367E0,-4.0028326E-4,9.452625E-2,7.4924815E-1,-1.6718693E-2,1.6044462E-4,1.6044965E-2,-4.6835926E-1,1.3220163E-2,-3.085367E-1,1.7143954E-2,3.0848929E-3,9.5493635E-3,-1.4861978E-2,2.9391772E-1,-1.2006781E0,1.6234556E-3,1.3037696E0,-1.693581E-2,-6.818406E-3,4.6723357E-1,-1.0523076E0,2.6500693E-1,1.0147599E0,-1.5654922E-2,3.2601467E-1,-1.2544147E0,-2.7899173E-1,-4.1766274E-1,6.6383004E-1,-1.6360004E0,5.6649446E-3,1.5058216E0,4.489403E-3,1.2578564E-2,1.7977051E-3,5.9969383E-3,-1.43833505E-2,9.100673E-3,-2.584652E-3,1.1967792E-2,-1.7543724E-3,7.2927885E-3,-1.0912605E-3,-1.6516846E-2,3.046766E-3,-3.7216006E-3,8.6705235E-4,-1.600837E-2,4.3027294E-3,1.3367225E-2,6.406413E-4,-7.7679106E-3,-1.8008543E-2,5.721704E-3,1.6355015E-2],"categories":[],"categories_nodes":[],"categories_segments":[],"categories_sizes":[],"default_left":[0,0,0,0,0,0,0,0,0,0,0,0,0,0,0,0,0,0,0,0,0,0,0,0,0,0,0,0,0,0,0,0,0,0,0,0,0,0,0,0,0,0,0,0,0,0,0,0,0,0,0,0,0,0,0,0,0,0,0,0,0,0,0,0,0,0,0,0,0,0,0,0,0,0,0,0,0,0,0,0,0,0,0,0,0],"id":9,"left_children":[1,3,5,7,9,11,13,15,17,19,21,-1,23,25,27,29,-1,31,33,35,37,39,41,-1,-1,43,45,-1,-1,47,-1,49,51,-1,-1,-1,53,-1,55,-1,-1,-1,-1,57,59,-1,61,-1,-1,63,65,67,69,-1,71,73,75,77,79,81,-1,83,-1,-1,-1,-1,-1,-1,-1,-1,-1,-1,-1,-1,-1,-1,-1,-1,-1,-1,-1,-1,-1,-1,-1],"loss_changes":[3.480293E1,4.7869728E1,3.897885E1,2.5305336E1,3.5564137E1,1.7061928E1,2.331703E1,1.2181851E1,2.6913158E1,3.1667278E1,1.2662519E1,0E0,4.320526E-1,3.779734E1,6.9499035E0,5.2102394E0,0E0,2.0192692E1,6.38163E0,2.8926771E1,2.0842125E1,4.8378716E0,1.6215218E1,0E0,0E0,2.736809E1,4.04475E0,0E0,0E0,4.7813797E-1,0E0,3.3743828E1,1.5600952E1,0E0,0E0,0E0,1.0538051E1,0E0,1.8159798E1,0E0,0E0,0E0,0E0,1.0013142E1,1.5145433E1,0E0,3.951683E0,0E0,0E0,1.3170087E1,1.3290411E1,1.5681498E1,1.76165E1,0E0,1.434159E0,1.292617E1,2.2172771E1,1.3989076E1,9.764186E0,4.7095108E-1,0E0,1.515213E0,0E0,0E0,0E0,0E0,0E0,0E0,0E0,0E0,0E0,0E0,0E0,0E0,0E0,0E0,0E0,0E0,0E0,0E0,0E0,0E0,0E0,0E0,0E0],"parents":[2147483647,0,0,1,1,2,2,3,3,4,4,5,5,6,6,7,7,8,8,9,9,10,10,12,12,13,13,14,14,15,15,17,17,18,18,19,19,20,20,21,21,22,22,25,25,26,26,29,29,31,31,32,32,36,36,38,38,43,43,44,44,46,46,49,49,50,50,51,51,52,52,54,54,55,55,56,56,57,57,58,58,59,59,61,61],"right_children":[2,4,6,8,10,12,14,16,18,20,22,-1,24,26,28,30,-1,32,34,36,38,40,42,-1,-1,44,46,-1,-1,48,-1,50,52,-1,-1,-1,54,-1,56,-1,-1,-1,-1,58,60,-1,62,-1,-1,64,66,68,70,-1,72,74,76,78,80,82,-1,84,-1,-1,-1,-1,-1,-1,-1,-1,-1,-1,-1,-1,-1,-1,-1,-1,-1,-1,-1,-1,-1,-1,-1],"split_conditions":[1.338479E0,-7.70455E-1,5.170273E-1,-1.5935493E0,1.737868E0,-6.7506276E-2,1.6803626E0,2.718774E0,1.7431257E0,-1.3022658E0,1.6495492E0,-2.2372957E-3,-8.708368E-1,1.4148812E0,-2.1323922E-1,-9.461489E-1,5.553451E-3,1.4452764E-1,9.2420787E-1,-8.457655E-2,-1.2828165E0,1.5916554E0,1.6772351E0,7.278396E-3,1.6901314E-2,1.249041E0,7.045616E-1,-1.674497E-2,4.230867E-4,5.9259397E-1,-4.0028326E-4,-1.7076463E-2,-2.3722863E-2,-1.6718693E-2,1.6044462E-4,1.6044965E-2,7.1256354E-2,1.3220163E-2,-1.5029031E0,1.7143954E-2,3.0848929E-3,9.5493635E-3,-1.4861978E-2,2.1229891E-1,2.2932084E0,1.6234556E-3,1.9106977E0,-1.693581E-2,-6.818406E-3,-1.5884494E0,-6.284479E-1,-6.2033635E-1,1.5461658E0,-1.5654922E-2,3.425037E-1,1.7561009E0,7.1054494E-1,-8.703097E-1,2.3023432E-1,-1.8262082E0,5.6649446E-3,1.1963245E0,4.489403E-3,1.2578564E-2,1.7977051E-3,5.9969383E-3,-1.43833505E-2,9.100673E-3,-2.584652E-3,1.1967792E-2,-1.7543724E-3,7.2927885E-3,-1.0912605E-3,-1.6516846E-2,3.046766E-3,-3.7216006E-3,8.6705235E-4,-1.600837E-2,4.3027294E-3,1.3367225E-2,6.406413E-4,-7.7679106E-3,-1.8008543E-2,5.721704E-3,1.6355015E-2],"split_indices":[18,17,19,20,10,2,8,21,24,6,2,0,12,10,21,14,0,10,1,19,5,5,6,0,0,19,22,0,0,1,0,29,26,0,0,0,1,0,21,0,0,0,0,10,22,0,22,0,0,17,26,26,5,0,1,26,20,21,6,21,0,4,0,0,0,0,0,0,0,0,0,0,0,0,0,0,0,0,0,0,0,0,0,0,0],"split_type":[0,0,0,0,0,0,0,0,0,0,0,0,0,0,0,0,0,0,0,0,0,0,0,0,0,0,0,0,0,0,0,0,0,0,0,0,0,0,0,0,0,0,0,0,0,0,0,0,0,0,0,0,0,0,0,0,0,0,0,0,0,0,0,0,0,0,0,0,0,0,0,0,0,0,0,0,0,0,0,0,0,0,0,0,0],"sum_hessian":[1.0856536E3,9.5470667E2,1.3094685E2,2.2854065E2,7.26166E2,3.6191483E1,9.475538E1,1.8891045E1,2.0964961E2,7.0032605E2,2.5839977E1,5.567616E0,3.0623867E1,8.423283E1,1.0522551E1,1.4298402E1,4.592643E0,2.0035918E2,9.290423E0,2.6554625E1,6.737714E2,1.6451471E1,9.388505E0,3.0709484E0,2.7552917E1,5.323758E1,3.0995247E1,7.478103E0,3.0444474E0,1.1002066E1,3.2963367E0,7.693183E1,1.2342735E2,6.243372E0,3.047051E0,1.6191061E1,1.0363564E1,6.942298E0,6.668291E2,1.2628307E1,3.823165E0,5.893102E0,3.4954023E0,3.589378E1,1.7343801E1,4.0703716E0,2.6924875E1,7.980772E0,3.0212936E0,5.8575333E1,1.83565E1,4.4550583E1,7.887677E1,3.9975674E0,6.365996E0,1.8839592E1,6.479895E2,1.2140442E1,2.3753336E1,1.4020764E1,3.323037E0,2.106687E1,5.8580055E0,1.4625784E1,4.3949547E1,3.323038E0,1.5033462E1,1.9712238E1,2.4838343E1,6.848215E1,1.0394625E1,3.0724607E0,3.2935355E0,1.5017703E1,3.8218884E0,5.166251E2,1.3136443E2,4.7468686E0,7.393573E0,1.0536593E1,1.3216743E1,3.2742343E0,1.074653E1,3.3233314E0,1.7743538E1],"tree_param":{"num_deleted":"0","num_feature":"38","num_nodes":"85","size_leaf_vector":"1"}},{"base_weights":[4.246178E-3,-2.4378814E-1,1.6413447E-1,1.2297529E-1,-7.157549E-1,2.4772382E-1,-7.0979965E-1,-9.167812E-2,8.475203E-1,-4.9621147E-1,-1.5878533E0,1.3248089E-1,1.0162356E0,-2.2877425E-1,-1.3483716E0,4.9054676E-1,-5.831862E-1,1.5029619E0,2.532895E-1,-3.3293745E-1,-1.5188776E0,3.9962342E-4,-1.7350942E0,2.7082893E-1,-7.191152E-1,1.17646E0,-9.969137E-2,3.081959E-1,-9.8405147E-1,-1.7879652E-2,-4.7668126E-1,8.1475127E-1,-3.820803E-1,-1.0768696E-1,-1.329528E0,1.7000811E-2,-0E0,-1.2202396E0,1.0588803E0,9.0804644E-2,-7.8600615E-1,3.465726E-4,-1.7936405E-2,-6.299931E-3,-1.8174026E-2,7.541684E-1,1.6371964E-2,-1.4186825E0,-1.9815221E-1,6.3158125E-1,1.5274721E0,1.6025696E-2,-1.6380873E-2,8.990287E-1,-8.5997206E-1,-1.946856E-1,-1.6693197E-2,7.672198E-3,-1.1699829E-2,3.6443725E-2,1.153555E0,3.880187E-1,-1.4360126E0,7.652432E-1,-3.460795E-1,-1.5788522E0,-8.956269E-2,3.845208E-4,-1.7022409E-2,1.4646578E0,-1.2729429E-3,-6.537348E-2,1.6587745E-2,-4.485703E-1,-1.8038264E-2,8.284892E-1,-1.1768653E-2,7.880709E-1,-1.2380928E-1,2.2580568E-3,-1.6714752E0,8.826738E-1,-4.7033247E-1,-4.5936236E-1,1.0926286E0,1.615132E0,4.3714633E-3,-8.611544E-4,1.4443625E-2,2.7705586E-4,-1.489946E-2,7.5504943E-3,-9.459835E-3,-8.869999E-3,1.4716495E-2,1.3356002E-2,-4.282476E-3,-1.552701E-2,1.199135E-2,-6.4711818E-3,-1.654333E-2,-7.508037E-3,1.3055522E-2,-6.160888E-3,9.921654E-3,-7.038564E-3,-1.8270798E-2,8.000729E-3,-8.510936E-3,7.5126444E-3,1.647766E-2,2.5140273E-3,-9.441124E-3,-2.764275E-4,-1.577454E-2,1.1588055E-2,4.3779057E-3,9.92733E-3,-1.00126965E-2,-7.6653007E-3,1.8171004E-3,-7.6858946E-3,-1.8700192E-2,-0E0,1.3069568E-2,-1.0721945E-2,5.4934523E-3,6.4748405E-3,-1.5710466E-2,1.5056504E-2,-8.521929E-3,1.6751358E-2,6.7333207E-3],"categories":[],"categories_nodes":[],"categories_segments":[],"categories_sizes":[],"default_left":[0,0,0,0,0,0,0,0,0,0,0,0,0,0,0,0,0,0,0,0,0,0,0,0,0,0,0,0,0,0,0,0,0,0,0,0,0,0,0,0,0,0,0,0,0,0,0,0,0,0,0,0,0,0,0,0,0,0,0,0,0,0,0,0,0,0,0,0,0,0,0,0,0,0,0,0,0,0,0,0,0,0,0,0,0,0,0,0,0,0,0,0,0,0,0,0,0,0,0,0,0,0,0,0,0,0,0,0,0,0,0,0,0,0,0,0,0,0,0,0,0,0,0,0,0,0,0,0,0,0,0,0,0],"id":10,"left_children":[1,3,5,7,9,11,13,15,17,19,21,23,25,27,29,31,33,35,37,39,41,-1,43,45,47,49,51,53,55,-1,57,59,61,63,65,-1,-1,67,69,71,73,-1,-1,-1,-1,75,77,79,81,83,85,-1,-1,87,89,91,-1,-1,-1,93,95,97,99,101,103,105,107,-1,-1,109,-1,111,-1,113,-1,115,-1,117,119,-1,121,123,125,127,129,131,-1,-1,-1,-1,-1,-1,-1,-1,-1,-1,-1,-1,-1,-1,-1,-1,-1,-1,-1,-1,-1,-1,-1,-1,-1,-1,-1,-1,-1,-1,-1,-1,-1,-1,-1,-1,-1,-1,-1,-1,-1,-1,-1,-1,-1,-1,-1],"loss_changes":[4.3931786E1,7.527968E1,4.936084E1,3.8253326E1,3.539412E1,5.4301357E1,1.7652538E1,5.4604984E1,2.1329967E1,2.4920776E1,9.26963E0,6.340352E1,1.4538902E1,1.4539916E1,8.519844E0,2.5059368E1,3.6428856E1,7.8853874E0,3.7784573E1,2.5796509E1,9.096283E0,0E0,1.7603836E0,5.6814957E1,2.6965042E1,1.2238365E1,3.1159477E1,1.5342588E1,7.512332E0,0E0,9.421551E0,1.673433E1,2.0345722E1,1.3617429E1,1.2086472E1,0E0,0E0,7.0824184E0,1.0169844E1,1.7368956E1,2.1221039E1,0E0,0E0,0E0,0E0,2.381868E1,3.307856E1,1.3764633E1,1.3420326E1,1.530546E1,3.0891724E0,0E0,0E0,8.082762E0,4.405524E0,6.507929E0,0E0,0E0,0E0,2.8605019E1,1.34820175E1,2.5037949E1,5.0888634E-1,1.2527055E1,1.9123713E1,5.683441E0,5.996995E0,0E0,0E0,5.3261185E-1,0E0,1.8236715E1,0E0,2.3588295E1,0E0,1.92258E1,0E0,1.8212057E1,5.0907608E1,0E0,3.2792206E0,3.3351512E0,2.282877E1,1.2608833E1,1.8185057E1,8.0075836E-1,0E0,0E0,0E0,0E0,0E0,0E0,0E0,0E0,0E0,0E0,0E0,0E0,0E0,0E0,0E0,0E0,0E0,0E0,0E0,0E0,0E0,0E0,0E0,0E0,0E0,0E0,0E0,0E0,0E0,0E0,0E0,0E0,0E0,0E0,0E0,0E0,0E0,0E0,0E0,0E0,0E0,0E0,0E0,0E0,0E0,0E0,0E0],"parents":[2147483647,0,0,1,1,2,2,3,3,4,4,5,5,6,6,7,7,8,8,9,9,10,10,11,11,12,12,13,13,14,14,15,15,16,16,17,17,18,18,19,19,20,20,22,22,23,23,24,24,25,25,26,26,27,27,28,28,30,30,31,31,32,32,33,33,34,34,37,37,38,38,39,39,40,40,45,45,46,46,47,47,48,48,49,49,50,50,53,53,54,54,55,55,59,59,60,60,61,61,62,62,63,63,64,64,65,65,66,66,69,69,71,71,73,73,75,75,77,77,78,78,80,80,81,81,82,82,83,83,84,84,85,85],"right_children":[2,4,6,8,10,12,14,16,18,20,22,24,26,28,30,32,34,36,38,40,42,-1,44,46,48,50,52,54,56,-1,58,60,62,64,66,-1,-1,68,70,72,74,-1,-1,-1,-1,76,78,80,82,84,86,-1,-1,88,90,92,-1,-1,-1,94,96,98,100,102,104,106,108,-1,-1,110,-1,112,-1,114,-1,116,-1,118,120,-1,122,124,126,128,130,132,-1,-1,-1,-1,-1,-1,-1,-1,-1,-1,-1,-1,-1,-1,-1,-1,-1,-1,-1,-1,-1,-1,-1,-1,-1,-1,-1,-1,-1,-1,-1,-1,-1,-1,-1,-1,-1,-1,-1,-1,-1,-1,-1,-1,-1,-1,-1],"split_conditions":[1.4777963E-1,-3.442912E-1,1.6696256E0,-3.5848865E-1,9.533016E-1,1.5225868E0,-8.059798E-2,-1.1824398E0,-3.4807873E-1,2.1131477E-1,-1.5238758E0,1.1834497E0,1.7174095E0,-1.1660897E-2,2.0711951E0,8.091002E-1,-2.3127446E-1,1.510356E0,-2.4984586E-1,-1.8437998E-1,-2.0699039E0,3.9962342E-4,-1.6280646E0,-5.066818E-1,6.530881E-1,1.5104628E0,-9.850458E-1,1.7333016E-1,1.6462673E0,-1.7879652E-2,1.6997613E0,-5.0806624E-1,-1.1662674E0,-1.3568344E0,-3.9156824E-1,1.7000811E-2,-0E0,-2.4232793E-1,5.500511E-1,1.3123366E-1,9.257093E-1,3.465726E-4,-1.7936405E-2,-6.299931E-3,-1.8174026E-2,6.7135143E-1,1.5817551E-1,-1.2013284E0,-1.5884494E0,9.0103775E-2,1.6639445E0,1.6025696E-2,-1.6380873E-2,1.5789245E0,-1.3783703E0,-3.631547E-2,-1.6693197E-2,7.672198E-3,-1.1699829E-2,-1.1452185E0,3.299593E-1,-1.1980541E0,-7.543188E-1,-1.2236454E0,6.810945E-1,-1.1749374E0,-4.3960786E-1,3.845208E-4,-1.7022409E-2,4.2726332E-1,-1.2729429E-3,2.33573E-2,1.6587745E-2,8.879336E-1,-1.8038264E-2,5.55995E-1,-1.1768653E-2,1.2579117E0,4.589291E-1,2.2580568E-3,1.0753971E0,-1.4530218E0,1.140859E0,2.002585E-2,1.7380449E0,1.7551653E0,4.3714633E-3,-8.611544E-4,1.4443625E-2,2.7705586E-4,-1.489946E-2,7.5504943E-3,-9.459835E-3,-8.869999E-3,1.4716495E-2,1.3356002E-2,-4.282476E-3,-1.552701E-2,1.199135E-2,-6.4711818E-3,-1.654333E-2,-7.508037E-3,1.3055522E-2,-6.160888E-3,9.921654E-3,-7.038564E-3,-1.8270798E-2,8.000729E-3,-8.510936E-3,7.5126444E-3,1.647766E-2,2.5140273E-3,-9.441124E-3,-2.764275E-4,-1.577454E-2,1.1588055E-2,4.3779057E-3,9.92733E-3,-1.00126965E-2,-7.6653007E-3,1.8171004E-3,-7.6858946E-3,-1.8700192E-2,-0E0,1.3069568E-2,-1.0721945E-2,5.4934523E-3,6.4748405E-3,-1.5710466E-2,1.5056504E-2,-8.521929E-3,1.6751358E-2,6.7333207E-3],"split_indices":[10,5,28,10,36,10,13,7,30,7,17,5,7,0,22,18,11,12,9,18,11,0,0,17,21,28,12,21,7,0,3,19,9,13,5,0,0,10,17,4,35,0,0,0,0,13,30,0,17,19,3,0,0,5,12,11,0,0,0,4,19,28,17,10,17,7,3,0,0,37,0,7,0,13,0,22,0,20,10,0,24,13,19,13,22,0,0,0,0,0,0,0,0,0,0,0,0,0,0,0,0,0,0,0,0,0,0,0,0,0,0,0,0,0,0,0,0,0,0,0,0,0,0,0,0,0,0,0,0,0,0,0,0],"split_type":[0,0,0,0,0,0,0,0,0,0,0,0,0,0,0,0,0,0,0,0,0,0,0,0,0,0,0,0,0,0,0,0,0,0,0,0,0,0,0,0,0,0,0,0,0,0,0,0,0,0,0,0,0,0,0,0,0,0,0,0,0,0,0,0,0,0,0,0,0,0,0,0,0,0,0,0,0,0,0,0,0,0,0,0,0,0,0,0,0,0,0,0,0,0,0,0,0,0,0,0,0,0,0,0,0,0,0,0,0,0,0,0,0,0,0,0,0,0,0,0,0,0,0,0,0,0,0,0,0,0,0,0,0],"sum_hessian":[1.1059639E3,4.3303992E2,6.7292395E2,2.4397528E2,1.8906464E2,6.149378E2,5.7986107E1,1.887822E2,5.5193085E1,1.523863E2,3.667832E1,5.358817E2,7.9056145E1,3.393689E1,2.404922E1,8.632401E1,1.0245818E2,2.543763E1,2.9755457E1,1.3263394E2,1.9752363E1,3.046565E0,3.3631756E1,4.616781E2,7.420359E1,6.916135E1,9.8948E0,2.0103613E1,1.3833276E1,1.5211959E1,8.83726E0,6.307199E1,2.3252024E1,6.3365734E1,3.9092453E1,2.2390566E1,3.0470634E0,1.0291725E1,1.9463732E1,6.883418E1,6.3799767E1,3.0450842E0,1.670728E1,3.0153728E0,3.0616383E1,1.5841429E2,3.0326382E2,3.0855116E1,4.3348473E1,2.830597E1,4.0855377E1,4.646572E0,5.248228E0,1.3560843E1,6.5427685E0,7.092918E0,6.7403584E0,3.0729718E0,5.7642884E0,1.955425E1,4.351774E1,1.3745364E1,9.50666E0,1.302868E1,5.033705E1,3.225323E1,6.839222E0,3.0471616E0,7.244563E0,1.4390448E1,5.0732837E0,6.341249E1,5.421691E0,4.907049E1,1.4729272E1,1.5314293E2,5.2713523E0,4.6019215E1,2.572446E2,4.0726366E0,2.6782478E1,8.195162E0,3.5153313E1,8.34546E0,1.9960508E1,3.728472E1,3.5706558E0,5.066656E0,8.494188E0,3.0468402E0,3.495928E0,3.0717468E0,4.021171E0,1.208852E1,7.4657316E0,3.9222584E1,4.2951536E0,3.7456827E0,9.999681E0,3.0191538E0,6.4875064E0,3.2723024E0,9.756377E0,4.239719E1,7.9398623E0,8.064492E0,2.4188738E1,3.0703976E0,3.7688246E0,4.0930023E0,1.0297446E1,4.705115E1,1.6361341E1,3.6553745E1,1.25167465E1,8.178003E1,7.13629E1,4.1745506E1,4.2737064E0,8.250251E1,1.747421E2,5.7966805E0,2.0985798E1,3.0485668E0,5.1465945E0,2.2134846E1,1.3018467E1,4.345992E0,3.9994678E0,1.6692713E1,3.2677968E0,3.421968E1,3.0650375E0],"tree_param":{"num_deleted":"0","num_feature":"38","num_nodes":"133","size_leaf_vector":"1"}},{"base_weights":[-9.97275E-3,3.7456367E-2,-8.1437117E-1,9.2911726E-1,-9.818695E-3,-1.0967622E0,2.9192984E-2,-1.5024263E-2,1.1459941E0,3.7936923E-1,-1.31385E-1,-6.433871E-1,-1.7969642E-2,6.958883E-1,-8.4097683E-1,1.4988524E0,6.7851174E-1,7.7799034E-1,-1.7858686E-2,5.8747464E-1,-1.9952966E-1,-9.20245E-2,-1.692332E-2,1.4649827E-2,-3.2098372E-3,-1.4557615E-2,2.4010678E-4,1.6389737E-2,5.992407E-3,1.19721524E-1,1.5416978E-2,3.9625436E-1,1.1691581E0,5.0037545E-1,-4.2786252E-1,1.0608015E0,-2.6940745E-1,-9.695431E-2,-7.92842E-1,4.369523E-1,-9.536489E-1,1.178839E-2,-4.051861E-1,1.2161102E0,-3.598457E-1,5.2314264E-1,1.5286384E0,-1.518079E-2,6.961035E-1,1.8410696E-1,-8.784095E-1,-7.413346E-2,1.3300984E0,4.6629074E-1,-1.7051838E-2,-1.4095993E-1,1.0013638E0,3.7722662E-1,-1.0106512E0,9.701845E-1,-4.8367884E-3,-1.4731607E-3,-1.5041929E-2,-1.50843905E-2,2.504384E-3,1.5269399E-2,-8.497355E-3,2.9233077E-3,-8.958656E-3,1.2378959E-2,-1.6242929E-2,1.6058378E-2,5.5471025E-3,1.2450046E-3,1.08693885E-2,-1.6126541E-2,7.148007E-3,1.121363E-2,-1.1802924E-2,9.133088E-3,-1.4453313E-2,2.7730735E-3,1.6245956E-2,9.489361E-3,-5.9720213E-3,-3.02742E-3,1.469354E-3,1.1973909E-2,-1.096005E-3,1.4205719E-2,-1.1756371E-2,-1.3958936E-2,-2.0437494E-3,1.3764914E-2,3.1705105E-3],"categories":[],"categories_nodes":[],"categories_segments":[],"categories_sizes":[],"default_left":[0,0,0,0,0,0,0,0,0,0,0,0,0,0,0,0,0,0,0,0,0,0,0,0,0,0,0,0,0,0,0,0,0,0,0,0,0,0,0,0,0,0,0,0,0,0,0,0,0,0,0,0,0,0,0,0,0,0,0,0,0,0,0,0,0,0,0,0,0,0,0,0,0,0,0,0,0,0,0,0,0,0,0,0,0,0,0,0,0,0,0,0,0,0,0],"id":11,"left_children":[1,3,5,7,9,11,13,-1,15,17,19,21,-1,23,25,27,29,31,33,35,37,39,-1,-1,-1,-1,-1,-1,-1,41,-1,43,45,47,49,51,53,55,57,59,61,-1,63,65,67,69,71,-1,73,75,77,79,81,83,-1,85,87,89,91,93,-1,-1,-1,-1,-1,-1,-1,-1,-1,-1,-1,-1,-1,-1,-1,-1,-1,-1,-1,-1,-1,-1,-1,-1,-1,-1,-1,-1,-1,-1,-1,-1,-1,-1,-1],"loss_changes":[4.2604183E1,4.4475117E1,1.495108E1,2.969825E1,4.7363827E1,1.3425007E1,1.0131503E1,0E0,6.909813E0,3.7808704E1,3.7472454E1,1.7010902E1,0E0,8.3610115E0,4.1860933E0,2.221161E0,1.0833145E1,1.7156158E1,2.573922E1,2.7224142E1,4.2321865E1,9.938469E0,0E0,0E0,0E0,0E0,0E0,0E0,0E0,9.021735E0,0E0,3.8888683E1,1.250013E1,2.2083101E1,1.8907024E1,1.3347195E1,2.6572763E1,2.8885647E1,2.6598251E1,7.1392684E0,3.2933202E0,0E0,8.361678E0,2.061943E1,1.1825269E1,3.63697E1,1.6557465E0,0E0,1.078808E1,2.9148838E1,2.504265E1,1.3708282E1,1.0157093E1,9.22382E0,0E0,2.6817825E1,5.25222E0,2.8851082E1,2.653489E1,1.7673054E0,0E0,0E0,0E0,0E0,0E0,0E0,0E0,0E0,0E0,0E0,0E0,0E0,0E0,0E0,0E0,0E0,0E0,0E0,0E0,0E0,0E0,0E0,0E0,0E0,0E0,0E0,0E0,0E0,0E0,0E0,0E0,0E0,0E0,0E0,0E0],"parents":[2147483647,0,0,1,1,2,2,3,3,4,4,5,5,6,6,8,8,9,9,10,10,11,11,13,13,14,14,15,15,16,16,17,17,18,18,19,19,20,20,21,21,29,29,31,31,32,32,33,33,34,34,35,35,36,36,37,37,38,38,39,39,40,40,42,42,43,43,44,44,45,45,46,46,48,48,49,49,50,50,51,51,52,52,53,53,55,55,56,56,57,57,58,58,59,59],"right_children":[2,4,6,8,10,12,14,-1,16,18,20,22,-1,24,26,28,30,32,34,36,38,40,-1,-1,-1,-1,-1,-1,-1,42,-1,44,46,48,50,52,54,56,58,60,62,-1,64,66,68,70,72,-1,74,76,78,80,82,84,-1,86,88,90,92,94,-1,-1,-1,-1,-1,-1,-1,-1,-1,-1,-1,-1,-1,-1,-1,-1,-1,-1,-1,-1,-1,-1,-1,-1,-1,-1,-1,-1,-1,-1,-1,-1,-1,-1,-1],"split_conditions":[1.6696256E0,-1.4128352E0,2.0711951E0,-3.4060264E-1,-7.70455E-1,1.6462673E0,1.710313E0,-1.5024263E-2,-1.314459E-1,-5.6238238E-2,-1.1824398E0,6.1661804E-1,-1.7969642E-2,2.3852962E-1,1.6950617E0,1.3048323E0,1.2008802E0,5.6784064E-2,-3.6559448E-1,-8.457655E-2,9.533016E-1,8.0116737E-1,-1.692332E-2,1.4649827E-2,-3.2098372E-3,-1.4557615E-2,2.4010678E-4,1.6389737E-2,5.992407E-3,6.008926E-1,1.5416978E-2,-4.932732E-1,5.266495E-1,-8.2274765E-1,-1.3516797E0,-1.2174557E0,1.2349544E0,1.6188428E0,-1.2627605E0,3.7134513E-1,1.7299806E0,1.178839E-2,1.2229179E0,7.3876816E-1,2.604819E-1,5.118226E-1,9.908903E-3,-1.518079E-2,-2.8351438E-1,-3.2783648E-1,-6.6386986E-1,-1.2828165E0,-5.0806624E-1,3.2165083E-1,-1.7051838E-2,5.369493E-1,1.1826994E0,-7.090704E-1,5.4142755E-1,1.7664908E0,-4.8367884E-3,-1.4731607E-3,-1.5041929E-2,-1.50843905E-2,2.504384E-3,1.5269399E-2,-8.497355E-3,2.9233077E-3,-8.958656E-3,1.2378959E-2,-1.6242929E-2,1.6058378E-2,5.5471025E-3,1.2450046E-3,1.08693885E-2,-1.6126541E-2,7.148007E-3,1.121363E-2,-1.1802924E-2,9.133088E-3,-1.4453313E-2,2.7730735E-3,1.6245956E-2,9.489361E-3,-5.9720213E-3,-3.02742E-3,1.469354E-3,1.1973909E-2,-1.096005E-3,1.4205719E-2,-1.1756371E-2,-1.3958936E-2,-2.0437494E-3,1.3764914E-2,3.1705105E-3],"split_indices":[28,35,22,6,17,7,25,0,31,36,7,20,0,1,5,27,5,26,8,19,36,22,0,0,0,0,0,0,0,14,0,31,9,31,12,22,12,8,14,11,25,0,27,19,6,22,20,0,19,22,31,5,19,1,0,20,27,22,17,9,0,0,0,0,0,0,0,0,0,0,0,0,0,0,0,0,0,0,0,0,0,0,0,0,0,0,0,0,0,0,0,0,0,0,0],"split_type":[0,0,0,0,0,0,0,0,0,0,0,0,0,0,0,0,0,0,0,0,0,0,0,0,0,0,0,0,0,0,0,0,0,0,0,0,0,0,0,0,0,0,0,0,0,0,0,0,0,0,0,0,0,0,0,0,0,0,0,0,0,0,0,0,0,0,0,0,0,0,0,0,0,0,0,0,0,0,0,0,0,0,0,0,0,0,0,0,0,0,0,0,0,0,0],"sum_hessian":[1.1128628E3,1.0516824E3,6.118041E1,5.211911E1,9.995633E2,4.5700222E1,1.5480187E1,3.7448277E0,4.8374283E1,2.3720882E2,7.6235443E2,2.8990675E1,1.6709547E1,8.943318E0,6.5368695E0,2.6187601E1,2.218668E1,1.18044E2,1.19164825E2,6.522335E1,6.971311E2,1.9777817E1,9.212857E0,4.897124E0,4.046194E0,3.4894133E0,3.0474565E0,2.18511E1,4.3364997E0,1.4229591E1,7.9570894E0,6.089042E1,5.715358E1,5.2430157E1,6.6734665E1,4.1936874E1,2.3286482E1,5.9550806E2,1.0162302E2,1.2487925E1,7.289893E0,4.365644E0,9.863947E0,2.89851E1,3.190532E1,2.141054E1,3.574304E1,3.9923103E0,4.8437847E1,2.8454657E1,3.8280006E1,8.11022E0,3.3826653E1,1.5797406E1,7.489075E0,5.73493E2,2.2015081E1,1.5761488E1,8.586153E1,7.9424376E0,4.5454865E0,3.545839E0,3.7440543E0,3.2487943E0,6.615153E0,2.5463154E1,3.521947E0,1.4514078E1,1.7391241E1,1.641656E1,4.99398E0,3.2421608E1,3.3214328E0,2.0309414E1,2.8128435E1,5.9802446E0,2.2474413E1,4.621281E0,3.3658726E1,4.86662E0,3.2436001E0,7.8926415E0,2.5934011E1,1.10048275E1,4.792578E0,3.673547E2,2.0613829E2,1.8723566E1,3.2915149E0,9.51685E0,6.2446365E0,5.7521973E1,2.8339558E1,4.1192627E0,3.8231747E0],"tree_param":{"num_deleted":"0","num_feature":"38","num_nodes":"95","size_leaf_vector":"1"}},{"base_weights":[1.0551334E-2,8.6626875E-1,-3.5631455E-2,-8.662322E-3,1.006E0,7.161668E-2,-4.0227237E-1,1.5170919E0,3.624775E-1,1.6185805E-2,1.1915823E0,-1.4243386E0,-2.4283732E-1,1.6571023E0,3.6769088E-3,-3.522687E-1,1.2156736E0,4.350181E-1,-1.1710849E-1,-0E0,1.4963121E0,-1.6621224E0,-2.2907872E-3,-1.307215E-1,-1.1715479E0,1.7561108E-2,6.6761402E-3,-1.1414617E0,1.1696945E-2,3.0952333E-3,1.60103E-2,-4.6777967E-2,6.720515E-1,6.253193E-1,-2.0421298E-1,9.487462E-3,-9.208224E-3,4.1518956E-3,1.6191386E-2,-6.051038E-3,-1.7670384E-2,-6.189962E-1,6.1087154E-2,-1.3609898E0,-0E0,-0E0,-1.6471623E-2,1.3604447E-2,-2.379862E-1,-2.9078225E-2,8.864372E-1,9.94409E-1,-4.2463344E-1,-3.1509238E-1,3.8776124E-1,-1.4116603E0,1.188077E-1,-1.0902697E-1,9.156822E-1,-1.6098794E0,-9.3665917E-4,1.1099132E-3,-1.3403624E-2,1.5786652E-2,-3.8012671E-3,1.5551665E-2,7.198547E-3,-3.7913942E-3,1.2109028E-2,-1.637751E-2,2.5173568E-3,2.9342063E-3,-4.6719885E-3,9.889849E-3,-2.1881396E-3,-5.244852E-3,-1.6970044E-2,-1.3152647E-2,6.321154E-3,-2.3306395E-4,-1.632188E-2,1.693418E-2,-8.633759E-3,-1.7698951E-2,-6.685855E-3],"categories":[],"categories_nodes":[],"categories_segments":[],"categories_sizes":[],"default_left":[0,0,0,0,0,0,0,0,0,0,0,0,0,0,0,0,0,0,0,0,0,0,0,0,0,0,0,0,0,0,0,0,0,0,0,0,0,0,0,0,0,0,0,0,0,0,0,0,0,0,0,0,0,0,0,0,0,0,0,0,0,0,0,0,0,0,0,0,0,0,0,0,0,0,0,0,0,0,0,0,0,0,0,0,0],"id":12,"left_children":[1,3,5,-1,7,9,11,13,15,17,19,21,23,25,-1,27,29,31,33,35,37,39,-1,41,43,-1,-1,45,-1,-1,-1,47,49,51,53,-1,-1,-1,-1,-1,-1,55,57,59,-1,-1,-1,-1,61,63,65,67,69,71,73,75,77,79,81,83,-1,-1,-1,-1,-1,-1,-1,-1,-1,-1,-1,-1,-1,-1,-1,-1,-1,-1,-1,-1,-1,-1,-1,-1,-1],"loss_changes":[4.428275E1,1.4776413E1,4.1792572E1,0E0,1.689584E1,5.0873177E1,3.868462E1,3.9325943E0,1.5841168E1,4.3855854E1,1.4067669E1,8.573074E0,2.151725E1,1.1242905E0,0E0,1.8613718E1,3.414751E0,2.1756172E1,3.8588623E1,8.611113E0,3.2136917E0,1.6436462E0,0E0,1.770472E1,5.0735073E0,0E0,0E0,5.8840723E0,0E0,0E0,0E0,1.7255611E1,1.9252243E1,2.4755445E1,3.5148674E1,0E0,0E0,0E0,0E0,0E0,0E0,3.1451874E1,1.9918592E1,5.7622643E0,0E0,0E0,0E0,0E0,2.2076822E1,1.7794838E1,9.532379E0,1.4435192E1,1.4437154E1,4.182783E1,3.1112198E1,5.425144E0,2.1703949E1,1.4684449E1,3.3013798E1,9.817009E-1,0E0,0E0,0E0,0E0,0E0,0E0,0E0,0E0,0E0,0E0,0E0,0E0,0E0,0E0,0E0,0E0,0E0,0E0,0E0,0E0,0E0,0E0,0E0,0E0,0E0],"parents":[2147483647,0,0,1,1,2,2,4,4,5,5,6,6,7,7,8,8,9,9,10,10,11,11,12,12,13,13,15,15,16,16,17,17,18,18,19,19,20,20,21,21,23,23,24,24,27,27,31,31,32,32,33,33,34,34,41,41,42,42,43,43,48,48,49,49,50,50,51,51,52,52,53,53,54,54,55,55,56,56,57,57,58,58,59,59],"right_children":[2,4,6,-1,8,10,12,14,16,18,20,22,24,26,-1,28,30,32,34,36,38,40,-1,42,44,-1,-1,46,-1,-1,-1,48,50,52,54,-1,-1,-1,-1,-1,-1,56,58,60,-1,-1,-1,-1,62,64,66,68,70,72,74,76,78,80,82,84,-1,-1,-1,-1,-1,-1,-1,-1,-1,-1,-1,-1,-1,-1,-1,-1,-1,-1,-1,-1,-1,-1,-1,-1,-1],"split_conditions":[-1.4128352E0,-3.7420958E-1,5.516945E-1,-8.662322E-3,-1.4992416E-1,1.319141E0,-1.0001509E0,1.6426142E0,1.261249E0,-7.70455E-1,-7.708317E-4,1.8317937E0,2.857458E0,1.3795776E0,3.6769088E-3,-6.655388E-1,1.4215795E0,1.3594241E-1,-1.1824398E0,-4.1956788E-1,1.3612615E0,-1.6023811E0,-2.2907872E-3,-4.1617793E-1,1.309206E0,1.7561108E-2,6.6761402E-3,-7.210291E-1,1.1696945E-2,3.0952333E-3,1.60103E-2,-1.179233E0,-7.2502804E-1,-8.457655E-2,1.3383936E0,9.487462E-3,-9.208224E-3,4.1518956E-3,1.6191386E-2,-6.051038E-3,-1.7670384E-2,6.4539194E-1,1.278298E0,6.505864E-1,-0E0,-0E0,-1.6471623E-2,1.3604447E-2,-8.896195E-1,1.1299248E-1,3.2199553E-1,-1.3506021E0,1.4749679E-1,-6.0698545E-1,-4.5209232E-1,-7.134436E-1,1.2016944E0,1.4537437E0,1.5857075E0,-1.1113462E-1,-9.3665917E-4,1.1099132E-3,-1.3403624E-2,1.5786652E-2,-3.8012671E-3,1.5551665E-2,7.198547E-3,-3.7913942E-3,1.2109028E-2,-1.637751E-2,2.5173568E-3,2.9342063E-3,-4.6719885E-3,9.889849E-3,-2.1881396E-3,-5.244852E-3,-1.6970044E-2,-1.3152647E-2,6.321154E-3,-2.3306395E-4,-1.632188E-2,1.693418E-2,-8.633759E-3,-1.7698951E-2,-6.685855E-3],"split_indices":[35,7,19,0,31,18,35,22,14,17,10,18,32,15,0,21,2,10,7,1,18,0,0,21,15,0,0,1,0,0,0,25,35,19,35,0,0,0,0,0,0,22,10,35,0,0,0,0,15,7,2,22,19,20,19,0,13,22,28,1,0,0,0,0,0,0,0,0,0,0,0,0,0,0,0,0,0,0,0,0,0,0,0,0,0],"split_type":[0,0,0,0,0,0,0,0,0,0,0,0,0,0,0,0,0,0,0,0,0,0,0,0,0,0,0,0,0,0,0,0,0,0,0,0,0,0,0,0,0,0,0,0,0,0,0,0,0,0,0,0,0,0,0,0,0,0,0,0,0,0,0,0,0,0,0,0,0,0,0,0,0,0,0,0,0,0,0,0,0,0,0,0,0],"sum_hessian":[1.1166484E3,5.63808E1,1.0602677E3,3.7664452E0,5.2614353E1,8.207249E2,2.3954279E2,2.848133E1,2.4133022E1,7.830718E2,3.7653122E1,3.1169342E1,2.0837344E2,2.491739E1,3.5639408E0,1.3387691E1,1.0745331E1,1.8868369E2,5.943881E2,7.857431E0,2.9795692E1,2.5601873E1,5.567469E0,1.8704181E2,2.1331635E1,2.1854767E1,3.0626237E0,9.024087E0,4.363604E0,3.821632E0,6.9236994E0,6.2343838E1,1.2633984E2,6.1643967E1,5.3274414E2,3.8435514E0,4.01388E0,3.5696797E0,2.6226013E1,3.008835E0,2.2593039E1,5.2271606E1,1.347702E2,1.8286482E1,3.0451527E0,3.0414848E0,5.9826016E0,6.6636715E0,5.568017E1,2.9678108E1,9.6661736E1,4.5720123E1,1.5923843E1,4.4923676E2,8.3507385E1,2.4824E1,2.7447605E1,1.13026726E2,2.1743484E1,1.4992837E1,3.2936456E0,4.2906063E1,1.2774103E1,4.6410437E0,2.5037066E1,1.7494747E1,7.9166985E1,6.059886E0,3.9660236E1,5.2442884E0,1.0679555E1,8.95198E1,3.5971695E2,4.1704872E1,4.1802513E1,6.8171253E0,1.8006874E1,6.771719E0,2.0675886E1,1.0802807E2,4.998657E0,1.5202069E1,6.5414147E0,1.1971261E1,3.021576E0],"tree_param":{"num_deleted":"0","num_feature":"38","num_nodes":"85","size_leaf_vector":"1"}},{"base_weights":[-1.8733827E-2,7.342098E-1,-6.072766E-2,-1.4337694E-2,8.911537E-1,-4.1697642E-1,4.8632592E-2,1.402752E0,1.938242E-1,-5.612379E-1,3.0561447E-1,4.0798518E-1,-5.411566E-2,1.6166693E0,3.5298534E-4,-4.2070785E-1,8.451401E-1,-1.8814296E-1,-8.207267E-1,9.831894E-1,-1.6567828E-1,7.9436255E-1,3.929352E-2,-1.0746797E-1,6.870546E-1,6.953415E-3,1.7463129E-2,-1.2989637E-2,7.81466E-3,4.326281E-6,1.3366053E-2,5.471788E-1,-5.7083565E-1,2.1153206E-3,-1.1340163E0,-6.4245895E-3,1.3838185E0,6.736961E-1,-1.2181861E0,-1.585604E-2,9.457504E-1,1.237602E-2,-7.159313E-2,-8.740699E-1,-5.9765406E-2,1.1980287E0,-3.5197872E-1,-2.7349892E-1,8.353582E-1,5.146985E-1,-1.0561198E0,-5.103403E-1,7.7391267E-1,-1.6419064E0,-6.93717E-1,1.649804E-2,4.4652224E-3,6.165675E-2,1.6077725E-2,5.0039656E-5,-1.6699294E-2,5.135046E-1,1.2507617E0,-2.7253288E-1,7.993807E-1,-1.0301823E-1,-1.5999122E0,3.308404E-1,-1.7170349E-1,7.7862036E-4,1.3930849E0,-1.6341258E-2,4.9130282E-1,-1.5294863E-2,9.280958E-3,1.1476076E-2,-1.6916774E-3,-5.5695334E-3,1.2621501E-2,-2.454309E-3,-1.7179191E-2,9.028777E-3,-1.1647825E-2,1.4337034E-2,-9.703688E-5,-1.7068028E-2,-6.8028537E-3,3.8636436E-3,-1.0422077E-2,-8.876023E-3,8.077082E-3,7.418495E-3,-1.0088086E-2,4.9459515E-3,1.6037809E-2,-1.8709475E-4,-9.91893E-3,1.1953412E-2,-6.602866E-3,7.444029E-3,-1.2713727E-2,-1.7533425E-2,-6.3414285E-3,4.2447373E-3,-1.2474759E-2,-1.4473019E-2,-9.7300805E-4,1.5707497E-2,5.1441863E-3,1.437393E-2,-1.8334682E-3],"categories":[],"categories_nodes":[],"categories_segments":[],"categories_sizes":[],"default_left":[0,0,0,0,0,0,0,0,0,0,0,0,0,0,0,0,0,0,0,0,0,0,0,0,0,0,0,0,0,0,0,0,0,0,0,0,0,0,0,0,0,0,0,0,0,0,0,0,0,0,0,0,0,0,0,0,0,0,0,0,0,0,0,0,0,0,0,0,0,0,0,0,0,0,0,0,0,0,0,0,0,0,0,0,0,0,0,0,0,0,0,0,0,0,0,0,0,0,0,0,0,0,0,0,0,0,0,0,0,0,0],"id":13,"left_children":[1,3,5,-1,7,9,11,13,15,17,19,21,23,25,-1,27,29,31,33,35,37,39,41,43,45,-1,-1,-1,-1,-1,-1,47,49,51,53,-1,55,57,59,-1,61,-1,63,65,67,69,71,73,75,77,79,81,83,85,87,-1,-1,89,-1,-1,-1,91,93,95,97,99,101,103,105,-1,107,-1,109,-1,-1,-1,-1,-1,-1,-1,-1,-1,-1,-1,-1,-1,-1,-1,-1,-1,-1,-1,-1,-1,-1,-1,-1,-1,-1,-1,-1,-1,-1,-1,-1,-1,-1,-1,-1,-1,-1],"loss_changes":[3.460273E1,2.089004E1,4.0508133E1,0E0,1.9032211E1,2.565166E1,2.9414747E1,8.912308E0,1.013665E1,1.9496437E1,1.3391614E1,2.511743E1,2.4492065E1,1.7566605E0,0E0,1.4906208E1,4.940197E0,2.4274551E1,3.101741E1,1.2113155E1,2.3005207E1,3.2530422E1,1.2406012E1,2.1005838E1,2.2578508E1,0E0,0E0,0E0,0E0,0E0,0E0,7.2770386E0,3.0402925E1,1.3854978E1,1.8062057E1,0E0,2.5693054E0,8.03882E0,6.5419636E0,0E0,9.9668045E0,0E0,1.5026004E1,1.8518183E1,2.3901495E1,5.897293E0,1.6501192E1,1.4076815E1,7.2611933E0,1.5262048E1,2.0569332E1,2.0441696E1,7.40932E0,1.0664062E0,1.868163E1,0E0,0E0,7.706537E0,0E0,0E0,0E0,1.3123403E1,1.1578079E1,1.2631407E1,1.0135722E1,1.8296333E1,1.2005005E0,1.8431904E1,4.0042217E1,0E0,2.7064018E0,0E0,6.3993893E0,0E0,0E0,0E0,0E0,0E0,0E0,0E0,0E0,0E0,0E0,0E0,0E0,0E0,0E0,0E0,0E0,0E0,0E0,0E0,0E0,0E0,0E0,0E0,0E0,0E0,0E0,0E0,0E0,0E0,0E0,0E0,0E0,0E0,0E0,0E0,0E0,0E0,0E0],"parents":[2147483647,0,0,1,1,2,2,4,4,5,5,6,6,7,7,8,8,9,9,10,10,11,11,12,12,13,13,15,15,16,16,17,17,18,18,19,19,20,20,21,21,22,22,23,23,24,24,31,31,32,32,33,33,34,34,36,36,37,37,38,38,40,40,42,42,43,43,44,44,45,45,46,46,47,47,48,48,49,49,50,50,51,51,52,52,53,53,54,54,57,57,61,61,62,62,63,63,64,64,65,65,66,66,67,67,68,68,70,70,72,72],"right_children":[2,4,6,-1,8,10,12,14,16,18,20,22,24,26,-1,28,30,32,34,36,38,40,42,44,46,-1,-1,-1,-1,-1,-1,48,50,52,54,-1,56,58,60,-1,62,-1,64,66,68,70,72,74,76,78,80,82,84,86,88,-1,-1,90,-1,-1,-1,92,94,96,98,100,102,104,106,-1,108,-1,110,-1,-1,-1,-1,-1,-1,-1,-1,-1,-1,-1,-1,-1,-1,-1,-1,-1,-1,-1,-1,-1,-1,-1,-1,-1,-1,-1,-1,-1,-1,-1,-1,-1,-1,-1,-1,-1,-1],"split_conditions":[-1.4128352E0,-3.7420958E-1,-7.2502804E-1,-1.4337694E-2,-1.314459E-1,1.694902E0,-8.918713E-1,1.1941458E0,1.2770175E0,-5.6238238E-2,1.6694028E0,-5.6238238E-2,1.6904904E0,-1.5185466E0,3.5298534E-4,-7.427484E-1,1.357956E0,1.4711843E-1,-3.442912E-1,6.284772E-1,-5.399211E-1,-8.166959E-1,-1.161293E0,-1.2452873E0,-1.0908211E-1,6.953415E-3,1.7463129E-2,-1.2989637E-2,7.81466E-3,4.326281E-6,1.3366053E-2,-4.9579138E-1,-9.432959E-1,-4.6519208E-1,1.14842854E-1,-6.4245895E-3,1.0775166E0,1.701532E0,-6.036203E-1,-1.585604E-2,-2.2419095E-1,1.237602E-2,2.087237E0,-1.141621E0,-3.5997313E-1,-5.100742E-1,5.8489597E-1,-7.894861E-2,1.5020946E-1,-8.839182E-1,-2.8131074E-1,-1.1609044E0,-8.8292485E-1,6.093563E-2,1.4600452E0,1.649804E-2,4.4652224E-3,-1.3719025E-1,1.6077725E-2,5.0039656E-5,-1.6699294E-2,1.1820638E0,5.036882E-1,5.170273E-1,2.1948218E0,-1.248184E0,-1.0415416E0,1.5180302E0,-6.140783E-2,7.7862036E-4,1.5889678E0,-1.6341258E-2,7.139963E-1,-1.5294863E-2,9.280958E-3,1.1476076E-2,-1.6916774E-3,-5.5695334E-3,1.2621501E-2,-2.454309E-3,-1.7179191E-2,9.028777E-3,-1.1647825E-2,1.4337034E-2,-9.703688E-5,-1.7068028E-2,-6.8028537E-3,3.8636436E-3,-1.0422077E-2,-8.876023E-3,8.077082E-3,7.418495E-3,-1.0088086E-2,4.9459515E-3,1.6037809E-2,-1.8709475E-4,-9.91893E-3,1.1953412E-2,-6.602866E-3,7.444029E-3,-1.2713727E-2,-1.7533425E-2,-6.3414285E-3,4.2447373E-3,-1.2474759E-2,-1.4473019E-2,-9.7300805E-4,1.5707497E-2,5.1441863E-3,1.437393E-2,-1.8334682E-3],"split_indices":[35,7,35,0,31,7,17,0,14,36,4,36,14,21,0,21,3,3,5,22,31,21,25,5,19,0,0,0,0,0,0,26,26,5,24,0,15,9,16,0,19,0,31,25,25,31,5,16,4,31,0,31,22,7,25,0,0,0,0,0,0,4,9,19,26,5,25,15,7,0,15,0,5,0,0,0,0,0,0,0,0,0,0,0,0,0,0,0,0,0,0,0,0,0,0,0,0,0,0,0,0,0,0,0,0,0,0,0,0,0,0],"split_type":[0,0,0,0,0,0,0,0,0,0,0,0,0,0,0,0,0,0,0,0,0,0,0,0,0,0,0,0,0,0,0,0,0,0,0,0,0,0,0,0,0,0,0,0,0,0,0,0,0,0,0,0,0,0,0,0,0,0,0,0,0,0,0,0,0,0,0,0,0,0,0,0,0,0,0,0,0,0,0,0,0,0,0,0,0,0,0,0,0,0,0,0,0,0,0,0,0,0,0,0,0,0,0,0,0,0,0,0,0,0,0],"sum_hessian":[1.0940853E3,5.680022E1,1.0372852E3,3.2420964E0,5.3558125E1,2.431872E2,7.9409796E2,3.022698E1,2.3331146E1,2.030175E2,4.016969E1,1.7612376E2,6.179742E2,2.5917246E1,4.309734E0,1.2107738E1,1.1223409E1,8.414443E1,1.1887307E2,1.6120035E1,2.4049654E1,8.530305E1,9.082072E1,5.774006E2,4.0573612E1,4.07717E0,2.1840076E1,6.9979844E0,5.1097527E0,4.571125E0,6.652283E0,2.8565798E1,5.5578636E1,3.2965256E1,8.5907814E1,3.0185034E0,1.3101531E1,1.3526879E1,1.0522776E1,4.495471E0,8.080758E1,6.908129E0,8.391258E1,3.268694E1,5.447136E2,2.716009E1,1.3413522E1,7.3469834E0,2.1218813E1,1.708792E1,3.8490715E1,1.9936846E1,1.3028409E1,3.8519245E1,4.738857E1,9.530194E0,3.5713365E0,8.880881E0,4.645997E0,3.0450954E0,7.4776797E0,3.4676834E1,4.6130745E1,6.883401E1,1.5078579E1,1.6470385E1,1.6216553E1,1.2069651E2,4.2401712E2,4.3115616E0,2.2848528E1,4.996889E0,8.416633E0,3.4994578E0,3.8475254E0,1.6154438E1,5.0643754E0,7.0710063E0,1.0016913E1,1.798341E1,2.0507305E1,6.1417627E0,1.3795083E1,6.691935E0,6.336474E0,3.526071E1,3.258534E0,1.1463615E1,3.5924953E1,3.7657077E0,5.115174E0,3.0656736E1,4.0200973E0,1.5536305E1,3.0594439E1,5.1742046E1,1.7091957E1,1.2057393E1,3.0211856E0,9.707032E0,6.763353E0,1.3200393E1,3.0161602E0,1.1468713E2,6.0093775E0,2.2277843E1,4.0173926E2,1.8255781E1,4.5927477E0,3.094596E0,5.322037E0],"tree_param":{"num_deleted":"0","num_feature":"38","num_nodes":"111","size_leaf_vector":"1"}},{"base_weights":[-2.4946736E-2,-1.8383142E-1,1.8585667E-1,6.940339E-1,-2.4587157E-1,3.2180002E-1,-3.2036394E-1,-1.4564297E-1,1.1715443E0,-1.23060234E-1,-8.3880424E-1,4.0761945E-1,-4.2229548E-1,-1.1412324E0,-1.00666225E-1,-7.7237976E-1,1.2145078E-2,-8.758205E-4,1.455848E0,4.378934E-2,-7.058838E-1,-4.297544E-1,-1.5304329E0,-4.8725846E-1,4.9229768E-1,-5.628523E-2,-1.4385183E0,-1.8089853E-2,7.924551E-2,6.06088E-1,-4.206359E-1,3.9701844E-3,-1.6849091E-2,1.631447E-2,7.128971E-3,1.3826013E0,-2.6775258E-2,-1.0533247E0,-5.2157085E-2,-4.3504883E-2,-1.7402865E-2,-1.675714E0,-3.2025378E-3,-1.340576E0,7.7944463E-1,3.1115785E-1,8.948375E-1,5.023426E-1,-8.477718E-1,-6.4889756E-3,-1.6639898E-2,1.0967128E-2,-8.968018E-3,9.142612E-1,-9.0172645E-3,-1.0989323E0,2.2067109E-1,5.902225E-3,1.6588781E-2,-3.097724E-1,1.9279428E-1,-2.486751E-1,-1.3664441E0,5.158753E-1,-1.5078079E0,7.352998E-1,-4.0784806E-1,-6.047062E-3,-1.7604286E-2,-1.2145638E-3,-1.799245E-2,-3.4797024E-3,1.3223283E-2,8.8302803E-1,3.4487657E-2,5.566065E-2,1.0283656E0,8.350876E-1,-7.4606296E-3,-1.6782219E-2,6.134325E-3,-1.7883432E-3,1.2851892E0,-5.584806E-1,-1.7738136E-2,-4.6287164E-1,1.1406271E0,4.598744E-4,-8.6857015E-3,1.4321579E-2,6.35363E-4,3.2546907E-3,-1.6192146E-2,1.0185153E-3,-1.5613909E-2,1.2887506E-2,-1.5733445E-3,-6.7582E-3,-1.7183833E-2,8.42512E-4,1.4637606E-2,-9.015882E-3,8.551798E-3,-6.083676E-3,1.0689796E-2,-3.7836854E-3,3.3731281E-3,6.917042E-3,-1.0507804E-2,1.1038031E-2,-6.8279672E-3,1.1676529E-2,-1.5047435E-3,2.9582316E-3,1.553885E-2,-1.1036064E-2,1.2451429E-2,-9.6324505E-3,1.27025945E-2,1.4825715E-2,-0E0],"categories":[],"categories_nodes":[],"categories_segments":[],"categories_sizes":[],"default_left":[0,0,0,0,0,0,0,0,0,0,0,0,0,0,0,0,0,0,0,0,0,0,0,0,0,0,0,0,0,0,0,0,0,0,0,0,0,0,0,0,0,0,0,0,0,0,0,0,0,0,0,0,0,0,0,0,0,0,0,0,0,0,0,0,0,0,0,0,0,0,0,0,0,0,0,0,0,0,0,0,0,0,0,0,0,0,0,0,0,0,0,0,0,0,0,0,0,0,0,0,0,0,0,0,0,0,0,0,0,0,0,0,0,0,0,0,0,0,0,0,0],"id":14,"left_children":[1,3,5,7,9,11,13,15,17,19,21,23,25,27,29,31,-1,-1,33,35,37,39,41,43,45,47,49,-1,51,53,55,-1,-1,-1,-1,57,59,61,63,65,-1,67,-1,69,71,73,75,77,79,-1,-1,-1,-1,81,-1,83,85,-1,-1,87,89,91,93,95,97,99,101,-1,-1,-1,-1,-1,-1,103,105,107,109,111,-1,-1,-1,-1,113,115,-1,117,119,-1,-1,-1,-1,-1,-1,-1,-1,-1,-1,-1,-1,-1,-1,-1,-1,-1,-1,-1,-1,-1,-1,-1,-1,-1,-1,-1,-1,-1,-1,-1,-1,-1,-1],"loss_changes":[3.7025146E1,3.446694E1,3.278386E1,1.7023178E1,4.2746696E1,2.411813E1,1.795346E1,1.449733E1,9.864208E0,4.773518E1,2.768734E1,2.576669E1,1.4331213E1,1.7517008E1,1.8502115E1,1.31611E1,0E0,0E0,1.4725304E0,3.6229145E1,2.4642166E1,3.2584217E1,5.7707977E0,3.300996E1,2.2084E1,1.3678862E1,5.144768E-1,0E0,9.314632E0,1.2667319E1,2.4815239E1,0E0,0E0,0E0,0E0,2.9989357E0,2.2656057E1,1.7429008E1,3.3170547E1,1.4792488E1,0E0,1.6688766E0,0E0,9.684326E0,8.188295E0,3.3792908E1,1.0477974E1,8.142391E0,1.6687683E1,0E0,0E0,0E0,0E0,9.14344E0,0E0,8.8422165E0,1.9265491E1,0E0,0E0,3.1806156E1,3.2613434E1,1.7375795E1,1.4879791E1,1.5294912E1,5.731964E-1,7.587348E0,2.2979605E1,0E0,0E0,0E0,0E0,0E0,0E0,2.0035213E1,1.832967E1,1.0683625E1,1.1353371E1,5.131693E0,0E0,0E0,0E0,0E0,3.7153053E0,1.7943758E1,0E0,1.6527348E1,4.999096E0,0E0,0E0,0E0,0E0,0E0,0E0,0E0,0E0,0E0,0E0,0E0,0E0,0E0,0E0,0E0,0E0,0E0,0E0,0E0,0E0,0E0,0E0,0E0,0E0,0E0,0E0,0E0,0E0,0E0,0E0,0E0,0E0,0E0,0E0],"parents":[2147483647,0,0,1,1,2,2,3,3,4,4,5,5,6,6,7,7,8,8,9,9,10,10,11,11,12,12,13,13,14,14,15,15,18,18,19,19,20,20,21,21,22,22,23,23,24,24,25,25,26,26,28,28,29,29,30,30,35,35,36,36,37,37,38,38,39,39,41,41,43,43,44,44,45,45,46,46,47,47,48,48,53,53,55,55,56,56,59,59,60,60,61,61,62,62,63,63,64,64,65,65,66,66,73,73,74,74,75,75,76,76,77,77,82,82,83,83,85,85,86,86],"right_children":[2,4,6,8,10,12,14,16,18,20,22,24,26,28,30,32,-1,-1,34,36,38,40,42,44,46,48,50,-1,52,54,56,-1,-1,-1,-1,58,60,62,64,66,-1,68,-1,70,72,74,76,78,80,-1,-1,-1,-1,82,-1,84,86,-1,-1,88,90,92,94,96,98,100,102,-1,-1,-1,-1,-1,-1,104,106,108,110,112,-1,-1,-1,-1,114,116,-1,118,120,-1,-1,-1,-1,-1,-1,-1,-1,-1,-1,-1,-1,-1,-1,-1,-1,-1,-1,-1,-1,-1,-1,-1,-1,-1,-1,-1,-1,-1,-1,-1,-1,-1,-1],"split_conditions":[2.2962348E-1,-1.1807288E0,6.6879314E-1,-5.0806624E-1,9.533016E-1,4.2803046E-1,1.0006272E0,1.975824E-1,-1.083076E0,-1.0886646E-1,-1.0430304E0,-1.5185466E0,-1.3996872E-1,1.4524722E0,1.124053E0,-7.6325077E-1,1.2145078E-2,-8.758205E-4,1.3400641E-1,-4.2567414E-1,5.9675586E-1,-2.3127446E-1,6.093563E-2,9.141975E-1,9.7925127E-1,3.391258E-1,-1.2563714E0,-1.8089853E-2,6.83936E-1,1.0970988E0,1.201656E0,3.9701844E-3,-1.6849091E-2,1.631447E-2,7.128971E-3,-4.7412908E-1,3.4185782E-1,-5.2949476E-1,-2.6106843E-1,-1.2028975E0,-1.7402865E-2,-1.2326568E0,-3.2025378E-3,1.0389347E0,1.408013E0,4.4152507E-1,4.8642284E-1,-3.7080526E-1,1.7450223E0,-6.4889756E-3,-1.6639898E-2,1.0967128E-2,-8.968018E-3,1.0270982E0,-9.0172645E-3,1.005027E0,1.3974506E0,5.902225E-3,1.6588781E-2,1.884782E-1,5.525471E-1,1.7782135E-1,-5.872829E-1,1.519031E-1,-2.6170972E-1,-1.2491016E0,-9.7699106E-2,-6.047062E-3,-1.7604286E-2,-1.2145638E-3,-1.799245E-2,-3.4797024E-3,1.3223283E-2,-8.839182E-1,-6.292806E-1,3.904213E-1,2.0413353E0,2.002585E-2,-7.4606296E-3,-1.6782219E-2,6.134325E-3,-1.7883432E-3,1.03515E-1,8.783064E-1,-1.7738136E-2,-9.7301525E-1,1.5259489E0,4.598744E-4,-8.6857015E-3,1.4321579E-2,6.35363E-4,3.2546907E-3,-1.6192146E-2,1.0185153E-3,-1.5613909E-2,1.2887506E-2,-1.5733445E-3,-6.7582E-3,-1.7183833E-2,8.42512E-4,1.4637606E-2,-9.015882E-3,8.551798E-3,-6.083676E-3,1.0689796E-2,-3.7836854E-3,3.3731281E-3,6.917042E-3,-1.0507804E-2,1.1038031E-2,-6.8279672E-3,1.1676529E-2,-1.5047435E-3,2.9582316E-3,1.553885E-2,-1.1036064E-2,1.2451429E-2,-9.6324505E-3,1.27025945E-2,1.4825715E-2,-0E0],"split_indices":[18,7,26,19,36,37,18,22,20,16,8,21,21,26,20,1,0,0,22,7,20,11,7,22,16,14,12,0,14,19,14,0,0,0,0,10,10,22,19,14,0,31,0,11,11,18,20,31,10,0,0,0,0,26,0,15,10,0,0,7,7,16,20,8,10,12,15,0,0,0,0,0,0,31,21,15,18,13,0,0,0,0,31,27,0,21,4,0,0,0,0,0,0,0,0,0,0,0,0,0,0,0,0,0,0,0,0,0,0,0,0,0,0,0,0,0,0,0,0,0,0],"split_type":[0,0,0,0,0,0,0,0,0,0,0,0,0,0,0,0,0,0,0,0,0,0,0,0,0,0,0,0,0,0,0,0,0,0,0,0,0,0,0,0,0,0,0,0,0,0,0,0,0,0,0,0,0,0,0,0,0,0,0,0,0,0,0,0,0,0,0,0,0,0,0,0,0,0,0,0,0,0,0,0,0,0,0,0,0,0,0,0,0,0,0,0,0,0,0,0,0,0,0,0,0,0,0,0,0,0,0,0,0,0,0,0,0,0,0,0,0,0,0,0,0],"sum_hessian":[1.1034309E3,6.295414E2,4.7388947E2,4.077522E1,5.887662E2,3.7401202E2,9.987746E1,1.4957977E1,2.581724E1,4.8888245E2,